%YAML:1.0
---
opencv_ml_svm:
   format: 3
   svmType: C_SVC
   kernel:
      type: RBF
      gamma: 3.3750000000000002e-02
   C: 5.0000000000000000e-01
   term_criteria: { epsilon:1.1920928955078125e-07, iterations:1000 }
   var_count: 1764
   class_count: 2
   class_labels: !!opencv-matrix
      rows: 2
      cols: 1
      dt: i
      data: [ 0, 1 ]
   sv_total: 67
   support_vectors:
      - [ 3.31807464e-01, 1.57991186e-01, 1.76305592e-01, 2.75068879e-01,
          3.31807464e-01, 2.23491028e-01, 1.28344625e-01, 1.59690335e-01,
          3.31807464e-01, 2.25373107e-04, 7.03273981e-05, 1.75143476e-04,
          3.15622805e-04, 2.25535803e-03, 1.56835740e-04, 1.63335993e-04,
          8.91792079e-05, 2.17375200e-04, 2.96538442e-01, 1.15174226e-01,
          1.28468558e-01, 1.69417992e-01, 3.31807464e-01, 1.96874946e-01,
          1.13012962e-01, 1.59963161e-01, 3.30358386e-01, 9.77609016e-05,
          3.82565740e-05, 1.04212813e-04, 8.02408904e-05, 1.40276551e-03,
          4.89124541e-05, 7.99650370e-05, 3.73367402e-05, 9.99697804e-05,
          1.52640417e-03, 3.36700759e-04, 4.62337222e-04, 1.05153202e-04,
          1.88180874e-03, 2.34838924e-04, 2.06167271e-04, 3.48510686e-04,
          1.23876496e-03, 4.46511544e-02, 2.74933446e-02, 1.73923485e-02,
          1.33933676e-02, 9.60918888e-02, 2.57572327e-02, 2.05973014e-02,
          1.20857423e-02, 3.16737778e-02, 8.20873752e-02, 3.16050015e-02,
          4.02300991e-02, 1.72842946e-02, 2.22467154e-01, 2.59484854e-02,
          2.51433309e-02, 1.66121833e-02, 7.12452829e-02, 4.67382163e-01,
          2.51909494e-01, 2.21679464e-01, 1.91814333e-01, 4.67382163e-01,
          3.06846112e-01, 2.06156880e-01, 1.40069887e-01, 4.15040165e-01,
          6.17255755e-02, 3.90368626e-02, 2.47517638e-02, 1.83442701e-02,
          1.68253466e-01, 4.61096317e-02, 3.06854825e-02, 1.84852853e-02,
          4.27379832e-02, 4.56994958e-02, 2.71684360e-02, 2.02141907e-02,
          1.47448834e-02, 1.61262169e-01, 3.85772958e-02, 2.49578469e-02,
          1.49497045e-02, 3.30388434e-02, 3.39982539e-01, 2.03542277e-01,
          1.42924756e-01, 1.82287559e-01, 3.65651876e-01, 3.09175223e-01,
          1.82982534e-01, 1.24240801e-01, 2.38539115e-01, 2.57901967e-01,
          1.42918319e-01, 1.14329070e-01, 1.41079053e-01, 3.65651876e-01,
          2.37719640e-01, 1.40201733e-01, 9.88680497e-02, 1.95688009e-01,
          5.66263907e-02, 2.26860996e-02, 3.19921598e-02, 4.36265282e-02,
          2.21516430e-01, 5.50283492e-02, 2.56239530e-02, 2.41092555e-02,
          4.90382873e-02, 1.08543068e-01, 4.17785570e-02, 4.99205440e-02,
          7.46361241e-02, 3.34611148e-01, 9.12967250e-02, 4.21049260e-02,
          4.35841978e-02, 8.48995969e-02, 2.09076405e-01, 9.01808664e-02,
          1.32980958e-01, 2.04009160e-01, 3.34611148e-01, 2.04650119e-01,
          1.01599060e-01, 9.07529220e-02, 2.13490367e-01, 2.61744022e-01,
          1.25320643e-01, 1.62642017e-01, 2.65970469e-01, 3.34611148e-01,
          2.55494475e-01, 1.28910333e-01, 1.19816639e-01, 2.50485063e-01,
          2.19865918e-01, 7.75577426e-02, 8.66609737e-02, 1.21112511e-01,
          4.55153555e-01, 1.41728610e-01, 8.07790682e-02, 8.06459561e-02,
          1.62219003e-01, 1.22728859e-04, 3.82577127e-05, 1.14481663e-04,
          0., 1.77347462e-03, 0., 5.85581292e-05, 1.95690991e-05,
          1.22728859e-04, 3.15519005e-01, 1.69709623e-01, 1.78348765e-01,
          2.94835657e-01, 4.55153555e-01, 2.83188581e-01, 1.56861827e-01,
          1.51150629e-01, 2.65362859e-01, 9.06339210e-06, 6.18676449e-06,
          1.85131594e-05, 0., 1.10315457e-04, 0., 0., 0., 9.06339210e-06,
          0., 0., 0., 0., 0., 0., 0., 0., 0., 0., 0., 0., 0., 0., 0., 0.,
          0., 0., 0., 0., 0., 0., 0., 0., 0., 0., 0., 0., 0., 0., 0., 0.,
          0., 0., 0., 0., 0., 0., 0., 0., 0., 0., 0., 0., 0., 0., 0., 0.,
          0., 0., 0., 0., 0., 0., 0., 0., 0., 0., 0., 0., 0., 0., 0., 0.,
          0., 0., 0., 0., 0., 0., 0., 0., 1.43708527e-01, 5.01915254e-02,
          5.22643179e-02, 5.45690991e-02, 2.89643377e-01, 7.27321878e-02,
          5.01453467e-02, 7.52106532e-02, 1.73167273e-01, 3.78878252e-03,
          1.37563504e-03, 1.38207187e-03, 1.77337008e-03, 1.10750934e-02,
          1.43634609e-03, 1.87151646e-03, 2.03004945e-03, 3.88797093e-03,
          3.58486354e-01, 1.67146951e-01, 1.51371270e-01, 2.44759798e-01,
          3.58486354e-01, 1.87743485e-01, 1.29645184e-01, 1.25186324e-01,
          3.58486354e-01, 1.69347927e-01, 1.01213656e-01, 1.21745363e-01,
          1.68438420e-01, 3.58486354e-01, 1.59415051e-01, 1.04597092e-01,
          8.87514502e-02, 1.45413712e-01, 2.06306707e-02, 8.20263941e-03,
          1.05481185e-02, 9.90531128e-03, 7.27928504e-02, 1.32284854e-02,
          7.82058015e-03, 6.38801418e-03, 2.03585215e-02, 1.51381046e-01,
          6.51858598e-02, 6.83648884e-02, 9.45208594e-02, 3.47599268e-01,
          1.24746963e-01, 7.06405714e-02, 6.57550544e-02, 1.50770769e-01,
          7.31454939e-02, 2.63175499e-02, 4.00078781e-02, 6.61127195e-02,
          2.69456059e-01, 6.68446720e-02, 3.24609354e-02, 3.32234055e-02,
          7.90812150e-02, 3.47599268e-01, 1.40435115e-01, 1.73683465e-01,
          3.18151802e-01, 3.47599268e-01, 3.20703506e-01, 1.65763438e-01,
          1.98028460e-01, 3.47599268e-01, 1.28922656e-01, 6.50345385e-02,
          6.55207857e-02, 1.02742240e-01, 2.91665167e-01, 1.23812236e-01,
          7.39285201e-02, 6.91548735e-02, 1.24975733e-01, 1.21448100e-01,
          5.66620976e-02, 5.82712404e-02, 8.01831558e-02, 2.91665167e-01,
          9.28022712e-02, 5.72038963e-02, 5.52575663e-02, 1.16440155e-01,
          2.29388028e-01, 9.67179239e-02, 1.06640697e-01, 1.97966322e-01,
          2.91665167e-01, 1.84811115e-01, 1.05206951e-01, 1.25603274e-01,
          2.55613208e-01, 2.88484186e-01, 1.25936761e-01, 1.19384117e-01,
          1.84428826e-01, 2.91665167e-01, 1.67812496e-01, 1.11857869e-01,
          1.20354652e-01, 2.86796063e-01, 1.97046369e-01, 7.51983225e-02,
          8.89321566e-02, 1.42772645e-01, 2.92051047e-01, 1.16733424e-01,
          6.31546751e-02, 6.49311915e-02, 1.90630496e-01, 1.52337432e-01,
          6.34861588e-02, 7.42194727e-02, 1.27613798e-01, 2.92051047e-01,
          9.91569608e-02, 5.57987057e-02, 5.59369512e-02, 1.47346511e-01,
          2.92051047e-01, 1.66279241e-01, 1.47600949e-01, 2.25196615e-01,
          2.92051047e-01, 1.83455735e-01, 1.22797795e-01, 1.35342568e-01,
          2.92051047e-01, 1.88576370e-01, 6.64855689e-02, 6.19249344e-02,
          9.56651196e-02, 2.92051047e-01, 7.24015832e-02, 5.06431572e-02,
          5.97827211e-02, 1.89752519e-01, 2.73591191e-01, 1.37470961e-01,
          1.28513977e-01, 1.91175044e-01, 4.06102002e-01, 1.66918233e-01,
          1.19210884e-01, 1.17433652e-01, 2.63343990e-01, 0., 0., 0., 0.,
          0., 0., 0., 0., 0., 3.57341170e-01, 1.30317435e-01,
          1.21361561e-01, 1.52326971e-01, 4.06102002e-01, 1.27733707e-01,
          1.29497662e-01, 1.43041909e-01, 3.88619274e-01, 2.66606510e-02,
          9.40097868e-03, 1.32880397e-02, 4.45582997e-03, 6.95467293e-02,
          4.31510899e-03, 1.31681878e-02, 8.18538386e-03, 2.84140017e-02,
          0., 0., 0., 0., 0., 0., 0., 0., 0., 0., 0., 0., 0., 0., 0., 0.,
          0., 0., 2.17830181e-01, 7.05949441e-02, 1.33537397e-01,
          5.62387742e-02, 8.83003294e-01, 2.89970040e-02, 8.72096047e-02,
          3.61912102e-02, 2.12958217e-01, 5.55909686e-02, 1.38902562e-02,
          3.24340016e-02, 2.37767454e-02, 2.60578603e-01, 1.39615200e-02,
          1.88796297e-02, 8.91799666e-03, 5.51136211e-02, 0., 0., 0., 0.,
          0., 0., 0., 0., 0., 0., 0., 0., 0., 0., 0., 0., 0., 0., 0., 0.,
          0., 0., 0., 0., 0., 0., 0., 0., 0., 0., 0., 0., 0., 0., 0., 0.,
          1.21140666e-01, 6.28871098e-02, 6.17934875e-02, 9.67020094e-02,
          3.07190686e-01, 7.13733137e-02, 4.97099198e-02, 4.37047072e-02,
          1.13072000e-01, 9.37518477e-02, 6.35715276e-02, 7.32009113e-02,
          1.16507411e-01, 3.07190686e-01, 8.58202204e-02, 5.10479063e-02,
          4.38171327e-02, 7.82273188e-02, 2.07808837e-01, 1.09025240e-01,
          1.08820342e-01, 1.73411846e-01, 3.07190686e-01, 1.56389818e-01,
          1.01911962e-01, 8.32000598e-02, 1.83712825e-01, 2.49379978e-01,
          1.48211434e-01, 1.52945846e-01, 2.60256648e-01, 3.07190686e-01,
          2.79437691e-01, 1.50037065e-01, 1.24548942e-01, 2.27462709e-01,
          7.49006420e-02, 3.27688605e-02, 4.33502048e-02, 7.51262978e-02,
          2.86680788e-01, 6.51722923e-02, 3.16004865e-02, 2.87292302e-02,
          7.46808723e-02, 1.76764026e-01, 6.90141171e-02, 9.06586945e-02,
          1.73676983e-01, 2.94002473e-01, 1.51891574e-01, 7.40662143e-02,
          8.09329003e-02, 1.99081033e-01, 2.72008687e-01, 1.23583287e-01,
          1.17323898e-01, 1.99805215e-01, 2.94002473e-01, 2.26761460e-01,
          1.19225912e-01, 1.05932236e-01, 2.64348388e-01, 2.20839962e-01,
          9.19012129e-02, 8.87563676e-02, 1.63603142e-01, 2.94002473e-01,
          1.73101932e-01, 9.94380414e-02, 9.06620547e-02, 2.25742146e-01,
          2.63669431e-01, 1.09708682e-01, 1.22869186e-01, 2.36639157e-01,
          3.14163148e-01, 1.98194891e-01, 1.10382788e-01, 1.23621613e-01,
          2.83931583e-01, 3.14163148e-01, 1.61027774e-01, 1.58402503e-01,
          2.58883625e-01, 3.14163148e-01, 2.18344167e-01, 1.48035988e-01,
          1.38493553e-01, 3.14163148e-01, 5.84032014e-02, 2.29034983e-02,
          2.93371230e-02, 5.11280410e-02, 1.90954000e-01, 5.12636974e-02,
          3.10298409e-02, 2.47211773e-02, 5.89058064e-02, 4.01525088e-02,
          1.93711091e-02, 2.92964187e-02, 5.06887771e-02, 1.84767291e-01,
          4.30659093e-02, 2.72024255e-02, 1.61817949e-02, 3.58044319e-02,
          2.67508239e-01, 1.15511276e-01, 1.08997434e-01, 1.64890617e-01,
          2.67508239e-01, 1.52792647e-01, 1.13226123e-01, 1.12945110e-01,
          2.67508239e-01, 1.87687084e-01, 6.86737522e-02, 6.97023273e-02,
          1.06697313e-01, 2.67508239e-01, 1.04045540e-01, 8.29630494e-02,
          8.41724500e-02, 2.05754757e-01, 1.27448857e-01, 4.87801097e-02,
          4.85854521e-02, 8.09258148e-02, 2.67508239e-01, 8.30675513e-02,
          6.06091581e-02, 6.06311299e-02, 1.34291217e-01, 2.67508239e-01,
          1.19400524e-01, 1.08959354e-01, 1.99566960e-01, 2.67508239e-01,
          1.94237337e-01, 1.35391295e-01, 1.35507882e-01, 2.67508239e-01,
          1.25488043e-01, 5.06096110e-02, 5.18863760e-02, 8.59296471e-02,
          3.20581317e-01, 7.65456185e-02, 6.19706698e-02, 5.42400740e-02,
          1.29843920e-01, 2.48711463e-02, 1.07904002e-02, 1.35031966e-02,
          1.44778043e-02, 8.57424811e-02, 1.14590432e-02, 1.29311113e-02,
          1.02469455e-02, 2.54352726e-02, 3.20581317e-01, 1.72234729e-01,
          1.59698635e-01, 2.56786555e-01, 3.20581317e-01, 2.46249437e-01,
          1.77257255e-01, 1.64633527e-01, 3.20581317e-01, 2.48913154e-01,
          1.05077647e-01, 9.38329250e-02, 1.40981004e-01, 3.20581317e-01,
          8.95166770e-02, 8.19979087e-02, 8.43375698e-02, 2.27420330e-01,
          3.93661410e-02, 2.14644093e-02, 3.02269999e-02, 4.27286774e-02,
          2.04085857e-01, 3.46484706e-02, 2.65898686e-02, 1.99980512e-02,
          3.91055644e-02, 1.52845560e-02, 7.10391020e-03, 1.07541354e-02,
          1.39673408e-02, 6.78577274e-02, 1.28649035e-02, 9.59665701e-03,
          6.83957618e-03, 1.52314669e-02, 3.20147127e-01, 1.70965746e-01,
          1.66493744e-01, 2.56563783e-01, 3.20147127e-01, 1.97260857e-01,
          1.98432967e-01, 2.19593883e-01, 3.20147127e-01, 2.94946700e-01,
          1.09691836e-01, 1.22574635e-01, 1.23358309e-01, 3.20147127e-01,
          1.18557259e-01, 1.34606659e-01, 1.56259671e-01, 3.09366971e-01,
          2.63454411e-02, 4.36317921e-03, 8.21688492e-03, 1.61487446e-03,
          2.83023734e-02, 1.64534338e-03, 9.48013552e-03, 6.45073410e-03,
          2.72182841e-02, 7.41711643e-04, 4.40250551e-06, 1.31739316e-05,
          0., 1.35064300e-03, 0., 4.39992960e-04, 2.99078267e-04,
          7.73463224e-04, 4.94825602e-01, 1.89331397e-01, 2.59853780e-01,
          1.79718524e-01, 4.94825602e-01, 1.46084905e-01, 2.05719739e-01,
          2.34439060e-01, 4.94825602e-01, 8.25438835e-03, 1.56262273e-03,
          5.38915955e-03, 1.45151373e-03, 5.94563782e-02, 0.,
          4.25539119e-03, 3.80165479e-03, 8.75133183e-03, 1.28063172e-01,
          6.63407519e-02, 6.14127852e-02, 9.81422439e-02, 2.86444157e-01,
          9.91931558e-02, 6.47941530e-02, 5.48501462e-02, 1.12002663e-01,
          1.84540227e-01, 9.16193575e-02, 8.20998996e-02, 1.36306942e-01,
          2.86444157e-01, 1.73565656e-01, 9.57281888e-02, 8.66607279e-02,
          1.73176736e-01, 2.48033792e-01, 1.13588497e-01, 9.92025509e-02,
          1.66157514e-01, 2.86444157e-01, 1.98194697e-01, 1.25202343e-01,
          1.10964336e-01, 2.26439968e-01, 2.45109797e-01, 1.00540489e-01,
          8.91219079e-02, 1.58425048e-01, 2.86444157e-01, 2.01903403e-01,
          1.20105892e-01, 1.14578582e-01, 2.42112488e-01, 2.80080020e-01,
          1.31449014e-01, 1.17603071e-01, 1.99633509e-01, 2.80080020e-01,
          2.51409084e-01, 1.36358842e-01, 1.30981117e-01, 2.80080020e-01,
          1.71964154e-01, 6.75674602e-02, 6.08418584e-02, 1.07525632e-01,
          2.80080020e-01, 1.36137128e-01, 8.29573572e-02, 7.85293430e-02,
          1.72957584e-01, 2.45600253e-01, 8.60906243e-02, 8.23238343e-02,
          1.50639474e-01, 2.80080020e-01, 2.06346273e-01, 1.27155453e-01,
          1.24422170e-01, 2.50034243e-01, 8.56150985e-02, 2.70675197e-02,
          2.77584363e-02, 4.92964983e-02, 2.44693726e-01, 8.04461911e-02,
          5.17503023e-02, 4.89854328e-02, 8.67608264e-02, 3.81963164e-01,
          1.25851706e-01, 1.47023365e-01, 2.47951478e-01, 3.81963164e-01,
          3.59979302e-01, 2.41078556e-01, 2.11134091e-01, 3.81963164e-01,
          4.33734022e-02, 2.15803217e-02, 2.57030576e-02, 3.78748253e-02,
          2.13282883e-01, 3.44049744e-02, 3.29430699e-02, 2.40218528e-02,
          3.61405462e-02, 8.82012025e-02, 1.72513742e-02, 3.07680909e-02,
          6.15009815e-02, 3.58822435e-01, 1.10585593e-01, 7.77021497e-02,
          5.93201518e-02, 9.92035568e-02, 9.90471963e-05, 0., 0.,
          5.49414661e-04, 3.07466253e-03, 3.04980378e-04, 1.37629526e-04,
          1.43276002e-05, 9.90471963e-05, 1.22776285e-01, 5.11829294e-02,
          5.22354357e-02, 9.49740410e-02, 3.17067713e-01, 9.06082690e-02,
          4.90678921e-02, 5.27621284e-02, 1.25721291e-01, 3.17067713e-01,
          1.78661600e-01, 1.70692861e-01, 3.17067713e-01, 3.17067713e-01,
          3.10764730e-01, 1.83090523e-01, 1.80941015e-01, 3.17067713e-01,
          2.78834775e-02, 1.21663269e-02, 1.81866195e-02, 3.03241201e-02,
          1.15925893e-01, 2.83878706e-02, 1.33163510e-02, 1.17252115e-02,
          3.01777646e-02, 1.52184576e-01, 6.40849695e-02, 7.56212771e-02,
          1.22969620e-01, 3.17067713e-01, 1.19100936e-01, 6.64403588e-02,
          6.01857379e-02, 1.52063444e-01, 2.74645627e-01, 1.25161931e-01,
          1.07960679e-01, 1.68161064e-01, 2.74645627e-01, 1.68446541e-01,
          1.14915892e-01, 1.12253740e-01, 2.74645627e-01, 2.31920540e-01,
          1.01890735e-01, 8.09454843e-02, 1.20297104e-01, 2.74645627e-01,
          9.04477909e-02, 7.84186870e-02, 7.90008381e-02, 2.22148046e-01,
          2.29002580e-01, 9.82697830e-02, 9.54764187e-02, 1.48504928e-01,
          2.74645627e-01, 1.48311913e-01, 9.53604877e-02, 9.28557217e-02,
          2.34788820e-01, 1.65435627e-01, 7.23844096e-02, 6.34451658e-02,
          9.44479257e-02, 2.74645627e-01, 9.03608799e-02, 7.12401271e-02,
          6.50085956e-02, 1.69273645e-01, 3.07415009e-01, 1.58090413e-01,
          1.44994363e-01, 2.16952324e-01, 3.07415009e-01, 1.76584139e-01,
          1.82969883e-01, 1.99237004e-01, 3.07415009e-01, 2.68204331e-01,
          1.01360269e-01, 1.09866597e-01, 1.12908773e-01, 3.07415009e-01,
          1.13190748e-01, 1.27146855e-01, 1.48106843e-01, 2.85796642e-01,
          1.06188901e-01, 4.41771410e-02, 4.07585688e-02, 6.07585683e-02,
          3.07415009e-01, 6.09057508e-02, 5.76396622e-02, 4.65360954e-02,
          1.07647844e-01, 4.18632329e-02, 1.72770005e-02, 1.79246031e-02,
          2.47919131e-02, 2.01898739e-01, 2.74687614e-02, 2.65847370e-02,
          2.52850521e-02, 4.61672284e-02, 4.72345650e-01, 1.95916414e-01,
          2.63244867e-01, 1.95563167e-01, 4.72345650e-01, 1.55718163e-01,
          2.00232223e-01, 2.30586648e-01, 4.72345650e-01, 7.70500675e-03,
          1.81958138e-03, 6.23379648e-03, 1.60561572e-03, 5.55875637e-02,
          0., 3.13515775e-03, 2.69308453e-03, 8.04862101e-03,
          8.07413161e-02, 2.63782050e-02, 3.57733332e-02, 3.10456287e-02,
          2.02222884e-01, 2.44806148e-02, 2.91916355e-02, 2.88856775e-02,
          8.10795575e-02, 1.37700385e-03, 3.18071252e-04, 1.03949965e-03,
          1.78507034e-04, 4.49871505e-03, 0., 1.77017355e-04,
          5.91562348e-05, 1.37700385e-03, 2.73951024e-01, 1.20778769e-01,
          1.05786502e-01, 1.79791451e-01, 2.79387444e-01, 2.31461689e-01,
          1.45459726e-01, 1.33855090e-01, 2.63124973e-01, 1.75995305e-01,
          6.61433265e-02, 6.46243542e-02, 1.24526508e-01, 2.79387444e-01,
          1.57663703e-01, 9.85879526e-02, 9.49122235e-02, 1.85236812e-01,
          2.56006330e-01, 1.17044300e-01, 1.00708082e-01, 1.67808071e-01,
          2.79387444e-01, 1.87259629e-01, 1.13198206e-01, 1.10133246e-01,
          2.31578395e-01, 1.22877337e-01, 4.94066775e-02, 4.53159511e-02,
          6.81119412e-02, 2.32451156e-01, 6.90146312e-02, 5.15871532e-02,
          5.77492528e-02, 1.21919364e-01, 3.50223660e-01, 1.28521100e-01,
          1.37891039e-01, 2.79805481e-01, 3.50223660e-01, 3.50223660e-01,
          2.59992510e-01, 2.35560477e-01, 3.50223660e-01, 1.35326102e-01,
          3.41353975e-02, 3.93172652e-02, 7.89561346e-02, 3.50223660e-01,
          1.53455928e-01, 1.02764100e-01, 8.76840726e-02, 1.43926471e-01,
          8.20077658e-02, 3.15899923e-02, 3.22308168e-02, 4.11751457e-02,
          1.79812491e-01, 3.95542122e-02, 4.42077555e-02, 4.17575054e-02,
          8.49100128e-02, 9.24221519e-03, 2.30330206e-03, 2.37156497e-03,
          5.06066391e-03, 3.04554403e-02, 8.15545022e-03, 6.22284645e-03,
          4.05679783e-03, 1.02889398e-02, 2.07424536e-01, 3.35601568e-02,
          5.80184571e-02, 1.74775183e-01, 8.01036835e-01, 3.45113188e-01,
          2.35743791e-01, 1.57181680e-01, 2.47405112e-01, 5.60720728e-05,
          0., 0., 7.89705897e-04, 3.66697065e-03, 4.51916800e-04,
          2.19819674e-04, 0., 5.60720728e-05, 2.86403578e-02,
          5.04630990e-03, 3.58858868e-03, 1.77855100e-02, 9.00022611e-02,
          2.88215410e-02, 1.91111583e-02, 1.19346324e-02, 3.25612649e-02,
          0., 0., 0., 0., 0., 0., 0., 0., 0., 3.79914567e-02,
          1.88954845e-02, 2.66440827e-02, 3.38527262e-02, 1.33108839e-01,
          2.29780022e-02, 1.90853756e-02, 1.41979698e-02, 3.81537676e-02,
          4.09449488e-01, 1.69292778e-01, 2.01240078e-01, 3.18006396e-01,
          4.11103934e-01, 3.02890748e-01, 1.88618094e-01, 1.74158484e-01,
          4.11103934e-01, 0., 0., 0., 0., 2.92759660e-06, 0., 0., 0., 0.,
          7.84273148e-02, 3.35560702e-02, 3.21958996e-02, 8.34647939e-02,
          3.23598057e-01, 9.23436508e-02, 4.57757451e-02, 3.51379104e-02,
          8.07367489e-02, 2.92872697e-01, 1.21248752e-01, 1.35090455e-01,
          2.55996615e-01, 3.15086037e-01, 2.65671521e-01, 1.53044730e-01,
          1.37303934e-01, 3.07675660e-01, 1.68387085e-01, 6.76289052e-02,
          7.68479183e-02, 1.43234566e-01, 3.15086037e-01, 1.53793767e-01,
          9.87209380e-02, 8.08495581e-02, 1.80116653e-01, 1.10358834e-01,
          5.00820391e-02, 4.88356948e-02, 1.14306390e-01, 3.15086037e-01,
          1.27358824e-01, 6.83571622e-02, 5.00170738e-02, 1.14915669e-01,
          7.25650415e-02, 3.33188325e-02, 3.30333784e-02, 6.95074424e-02,
          2.85082340e-01, 7.83322453e-02, 4.53479365e-02, 3.29962112e-02,
          7.69239962e-02, 2.68571377e-01, 7.78872445e-02, 1.09648913e-01,
          1.66979969e-01, 6.31560981e-01, 1.97083294e-01, 1.95645913e-01,
          1.18313231e-01, 2.77441740e-01, 6.53127953e-02, 2.86494829e-02,
          2.58516893e-02, 4.03875448e-02, 5.34822106e-01, 4.64614965e-02,
          5.20163365e-02, 4.20843698e-02, 6.56431913e-02, 1.13995131e-02,
          6.28041895e-03, 9.75547824e-03, 1.00651197e-02, 6.10864721e-02,
          4.54836246e-03, 5.36573585e-03, 3.36775766e-03, 1.04142893e-02,
          0., 0., 0., 0., 0., 0., 0., 0., 0., 9.31355134e-02,
          2.57296935e-02, 3.04872822e-02, 8.89633819e-02, 9.23552692e-01,
          7.09880814e-02, 7.60060102e-02, 6.42186254e-02, 1.07339635e-01,
          0., 0., 0., 0., 0., 0., 0., 0., 0., 0., 0., 0., 0., 0., 0., 0.,
          0., 0., 0., 0., 0., 0., 0., 0., 0., 0., 0., 2.75214463e-01,
          1.47598371e-01, 1.16192147e-01, 1.90725192e-01, 2.75214463e-01,
          1.95353463e-01, 1.18061528e-01, 1.10491820e-01, 2.57588714e-01,
          2.14103639e-01, 8.61659646e-02, 7.20051005e-02, 1.09284364e-01,
          2.75214463e-01, 1.14061810e-01, 7.57989734e-02, 7.74955675e-02,
          1.91502243e-01, 1.81449801e-01, 8.48756582e-02, 7.15652406e-02,
          1.13999963e-01, 2.75214463e-01, 1.23509236e-01, 7.64411539e-02,
          6.59312978e-02, 1.59157515e-01, 2.38705233e-01, 9.51336548e-02,
          8.72446224e-02, 1.37831539e-01, 2.75214463e-01, 1.46830544e-01,
          9.15759206e-02, 8.22023749e-02, 2.14523107e-01, 2.57619232e-01,
          8.21646303e-02, 7.35308751e-02, 9.83323976e-02, 3.46162528e-01,
          1.04814850e-01, 8.05186033e-02, 7.92204067e-02, 2.16384649e-01,
          2.96504633e-03, 6.23217085e-04, 8.81653687e-04, 7.87944009e-04,
          5.74652432e-03, 6.82799553e-04, 6.57189463e-04, 8.74377729e-04,
          2.52579805e-03, 3.46162528e-01, 2.06157342e-01, 2.02465951e-01,
          2.96870857e-01, 3.46162528e-01, 3.24986935e-01, 2.06222445e-01,
          1.86742246e-01, 3.46162528e-01, 2.11012494e-02, 5.99414483e-03,
          7.83230085e-03, 7.93667696e-03, 4.94792685e-02, 1.20309992e-02,
          8.70185439e-03, 7.47288531e-03, 2.09932588e-02, 0., 0., 0., 0.,
          0., 0., 0., 0., 0., 0., 0., 0., 0., 0., 0., 0., 0., 0., 0., 0.,
          0., 0., 0., 0., 0., 0., 0., 0., 0., 0., 0., 0., 0., 0., 0., 0.,
          0., 0., 0., 0., 0., 0., 0., 0., 0., 2.43323684e-01,
          1.02663636e-01, 1.03825323e-01, 1.70591339e-01, 8.38628471e-01,
          2.73913294e-01, 1.63154587e-01, 1.05942495e-01, 2.43671685e-01,
          0., 0., 0., 0., 0., 0., 0., 0., 0., 3.85590876e-03,
          7.64258381e-04, 2.28694687e-03, 0., 5.14880335e-03, 0.,
          2.82422197e-03, 9.43807536e-04, 3.85590876e-03, 2.96418637e-01,
          1.24483429e-01, 1.27838448e-01, 1.81574300e-01, 4.70188469e-01,
          2.87440151e-01, 1.90999538e-01, 1.23523831e-01, 2.98263997e-01,
          2.09948167e-01, 8.88316855e-02, 9.25515071e-02, 1.17799997e-01,
          4.70188469e-01, 1.81300491e-01, 1.31020516e-01, 8.50067735e-02,
          2.12723419e-01, 5.48125384e-03, 1.05773262e-03, 3.16513260e-03,
          0., 7.44388904e-03, 0., 3.73121118e-03, 1.24690798e-03,
          5.48125384e-03, 4.27270355e-03, 8.16255808e-04, 2.44254409e-03,
          0., 5.98318875e-03, 0., 2.76104733e-03, 9.22695443e-04,
          4.27270355e-03, 1.21445037e-01, 7.76676834e-02, 9.67872739e-02,
          1.13480732e-01, 8.81963313e-01, 4.75504547e-02, 5.30553684e-02,
          2.63656583e-02, 1.06516212e-01, 0., 0., 0., 0., 0., 0., 0., 0.,
          0., 0., 0., 0., 0., 0., 0., 0., 0., 0., 0., 0., 0., 0., 0., 0.,
          0., 0., 0., 0., 0., 0., 0., 0., 0., 0., 0., 0., 0., 0., 0., 0.,
          0., 0., 0., 0., 0., 0., 0., 0., 0., 0., 0., 0., 0., 0., 0., 0.,
          0., 0., 0., 0., 0., 0., 0., 2.30238795e-01, 1.05630584e-01,
          1.01257421e-01, 1.62986234e-01, 3.41428846e-01, 1.69203624e-01,
          1.01897925e-01, 9.16237906e-02, 2.28296518e-01, 3.41428846e-01,
          1.64921328e-01, 1.67963803e-01, 2.64121056e-01, 3.41428846e-01,
          2.83686996e-01, 1.76339731e-01, 1.54668316e-01, 3.41428846e-01,
          6.65140152e-02, 2.12825090e-02, 1.90265812e-02, 3.68330069e-02,
          1.15691841e-01, 3.98725122e-02, 2.41363924e-02, 2.72114277e-02,
          7.16319159e-02, 7.28109702e-02, 2.06277557e-02, 2.15651449e-02,
          3.10296081e-02, 1.59888312e-01, 4.20996509e-02, 2.85449829e-02,
          2.53367256e-02, 7.17065483e-02, 3.58247489e-01, 1.93936720e-01,
          2.00051636e-01, 2.83319056e-01, 3.58247489e-01, 3.58247489e-01,
          2.26154640e-01, 1.98965475e-01, 3.58247489e-01, 3.85308824e-02,
          1.24823907e-02, 1.47402259e-02, 1.52120786e-02, 9.70066264e-02,
          2.73437593e-02, 1.93999670e-02, 1.48112206e-02, 4.01805192e-02,
          1.72512010e-01, 5.09065054e-02, 5.13283685e-02, 6.38668761e-02,
          3.58247489e-01, 1.06373638e-01, 7.16525987e-02, 6.08606189e-02,
          1.70098841e-01, 1.98571179e-02, 6.60445215e-03, 7.05534546e-03,
          7.27676693e-03, 4.69255298e-02, 1.36839189e-02, 9.53339040e-03,
          6.94562821e-03, 2.00141203e-02, 0., 0., 0., 0., 0., 0., 0., 0.,
          0., 0., 0., 0., 0., 0., 0., 0., 0., 0., 0., 0., 0., 0., 0., 0.,
          0., 0., 0., 0., 0., 0., 0., 0., 0., 0., 0., 0., 0., 0., 0., 0.,
          0., 0., 0., 0., 0., 0., 0., 0., 0., 0., 0., 0., 0., 0., 0., 0.,
          0., 0., 0., 0., 0., 0., 0., 0., 0., 0., 0., 0., 0., 0., 0., 0.,
          0., 0., 0., 0., 0., 0., 0., 0., 0., 0., 0., 0., 0., 0., 0., 0.,
          0., 0., 0., 0., 0., 0., 0., 0., 0., 0., 0., 0., 0., 0., 0., 0.,
          0., 0., 0., 0., 0., 0., 0., 0., 0., 0., 0., 0., 0., 0., 0., 0.,
          0., 0., 0., 0., 0., 0., 0., 0., 0., 0., 0., 0., 0., 0., 0., 0.,
          0., 0., 0., 0., 0., 0., 0., 0., 0., 0., 0., 0., 0., 0., 0., 0.,
          0., 0., 0., 0., 0., 0., 0., 0., 0., 0., 0., 0., 0., 0., 0., 0.,
          0., 0., 0., 0., 0., 0., 0., 0., 0., 0., 0., 0. ]
      - [ 3.86662334e-01, 6.66450858e-02, 4.77363840e-02, 4.06878889e-02,
          8.94203335e-02, 4.16124687e-02, 4.85983863e-02, 8.53956565e-02,
          3.86662334e-01, 3.86662334e-01, 1.07357435e-01, 8.14058632e-02,
          7.15671480e-02, 1.63155437e-01, 7.47035295e-02, 7.63568357e-02,
          1.34256408e-01, 3.86662334e-01, 1.13133617e-01, 1.47512564e-02,
          1.32575976e-02, 1.34164784e-02, 1.74241975e-01, 1.00638727e-02,
          9.52546950e-03, 2.21536718e-02, 1.21165462e-01, 1.92660406e-01,
          2.35417429e-02, 2.18160488e-02, 2.46431585e-02, 3.83459657e-01,
          2.17080042e-02, 1.75800193e-02, 3.55935544e-02, 2.09947303e-01,
          4.64681476e-01, 1.60382017e-01, 1.40693247e-01, 1.27505824e-01,
          3.01500350e-01, 1.30786330e-01, 1.16944179e-01, 1.96392983e-01,
          4.64681476e-01, 3.79968272e-03, 1.40601525e-03, 9.23888059e-04,
          8.60831991e-04, 2.11837166e-03, 8.48367868e-04, 1.09980023e-03,
          1.71481539e-03, 3.46146827e-03, 2.27732211e-01, 3.10376231e-02,
          3.08570508e-02, 3.67098339e-02, 4.64681476e-01, 3.68480049e-02,
          2.72961240e-02, 4.50276919e-02, 2.53991783e-01, 1.11754099e-02,
          2.35738163e-03, 3.66965309e-03, 5.83798671e-03, 3.70691232e-02,
          4.25211247e-03, 9.83828912e-04, 2.17106519e-03, 1.26933670e-02,
          0., 0., 0., 0., 0., 0., 0., 0., 0., 0., 0., 0., 0., 0., 0., 0.,
          0., 0., 4.18762743e-01, 4.05272692e-02, 5.68194315e-02,
          9.08338651e-02, 4.18762743e-01, 6.51865825e-02, 1.75119303e-02,
          3.86710055e-02, 4.18762743e-01, 4.18762743e-01, 2.67983340e-02,
          3.34592909e-02, 5.23373708e-02, 3.04896355e-01, 3.74080464e-02,
          1.21666975e-02, 2.73224618e-02, 4.18762743e-01, 0., 0., 0., 0.,
          0., 0., 0., 0., 0., 0., 0., 0., 0., 0., 0., 0., 0., 0.,
          4.98752832e-01, 4.62270458e-04, 1.74245710e-04, 1.07070569e-04,
          4.11672081e-04, 1.40927426e-04, 3.22467386e-04, 8.17679043e-04,
          4.98752832e-01, 4.98752832e-01, 0., 0., 0., 0., 0., 0., 0.,
          4.98752832e-01, 0., 0., 0., 0., 0., 0., 0., 0., 0., 0., 0., 0.,
          0., 0., 0., 0., 0., 0., 4.98752743e-01, 0., 0., 0., 0., 0., 0.,
          0., 4.98752743e-01, 4.98752743e-01, 3.08862596e-04,
          2.70969002e-04, 2.59053952e-04, 5.88597090e-04, 4.31695924e-04,
          4.01349767e-04, 7.92072853e-04, 4.98752743e-01, 0., 0., 0., 0.,
          0., 0., 0., 0., 0., 0., 0., 0., 0., 0., 0., 0., 0., 0.,
          4.57075179e-01, 6.96060807e-03, 9.87924077e-03, 2.52384413e-02,
          2.23046571e-01, 3.39413099e-02, 2.66380105e-02, 5.20042591e-02,
          4.57075179e-01, 4.57075179e-01, 7.51442043e-03, 1.04770735e-02,
          3.25376987e-02, 3.10987443e-01, 4.45832498e-02, 3.24510187e-02,
          6.07126057e-02, 4.57075179e-01, 0., 0., 0., 0., 0., 0., 0., 0.,
          0., 0., 0., 0., 0., 0., 0., 0., 0., 0., 4.33522522e-01,
          2.02953517e-02, 2.70821396e-02, 1.08852170e-01, 6.04515493e-01,
          1.52987450e-01, 1.02023877e-01, 1.73920929e-01, 6.02931619e-01,
          0., 0., 0., 0., 0., 0., 0., 0., 0., 2.85569532e-03,
          9.76386189e-04, 1.34247891e-03, 4.14038589e-03, 3.95715714e-01,
          3.23456433e-03, 1.44391437e-03, 1.39318523e-03, 2.82612280e-03,
          6.25796011e-03, 2.03100243e-03, 2.81811366e-03, 9.37276613e-03,
          3.95715714e-01, 7.71019375e-03, 3.54785891e-03, 3.30160256e-03,
          6.36857143e-03, 1.43820450e-01, 7.21793026e-02, 5.23410626e-02,
          6.27779588e-02, 3.95715714e-01, 5.79467230e-02, 4.00736928e-02,
          2.85285600e-02, 1.09147042e-01, 3.95715714e-01, 1.44183591e-01,
          9.53826234e-02, 1.33291483e-01, 3.95715714e-01, 1.22746520e-01,
          8.30138773e-02, 6.01172931e-02, 2.98811078e-01, 2.17282656e-03,
          6.59345300e-04, 8.93004762e-04, 3.10802902e-03, 3.57453346e-01,
          2.72014830e-03, 1.31217635e-03, 1.17852027e-03, 2.23849528e-03,
          1.78775266e-02, 3.95901175e-03, 6.16614288e-03, 1.21281072e-02,
          2.20489562e-01, 9.12777241e-03, 1.61548634e-03, 3.53440782e-03,
          2.02228278e-02, 3.57453346e-01, 1.33047909e-01, 4.55498844e-02,
          5.45598976e-02, 3.57453346e-01, 4.71210927e-02, 4.10456583e-02,
          4.01408672e-02, 3.57453346e-01, 3.57453346e-01, 6.71950281e-02,
          3.41044180e-02, 4.89943735e-02, 3.57453346e-01, 6.56078458e-02,
          4.75452393e-02, 9.71105769e-02, 3.57453346e-01, 1.20292835e-01,
          9.74082574e-03, 1.35326609e-02, 2.62684692e-02, 3.19368213e-01,
          1.96194556e-02, 4.27880324e-03, 9.07301158e-03, 1.21919431e-01,
          2.83897907e-01, 6.49070274e-03, 8.03943723e-03, 1.50494501e-02,
          2.58773029e-01, 1.12475511e-02, 3.00848461e-03, 6.41155150e-03,
          2.84834862e-01, 2.99790740e-01, 4.68291491e-02, 5.86457998e-02,
          1.05452098e-01, 3.19368213e-01, 1.19270451e-01, 6.66970834e-02,
          8.67664069e-02, 3.19368213e-01, 2.77650833e-01, 2.99854856e-02,
          3.75196002e-02, 6.82623908e-02, 3.19368213e-01, 7.26448745e-02,
          5.42930439e-02, 6.07449636e-02, 3.16280425e-01, 3.52387279e-01,
          3.16570804e-04, 1.30101413e-04, 8.09633202e-05, 4.47287050e-04,
          1.07196101e-04, 2.26947144e-04, 5.16586355e-04, 3.52387279e-01,
          3.52387279e-01, 0., 0., 0., 0., 0., 0., 0., 3.52387279e-01,
          3.52387279e-01, 3.41482460e-03, 2.10301997e-03, 2.16300972e-03,
          6.18702825e-03, 5.44304773e-03, 1.47913704e-02, 1.58434808e-02,
          3.52387279e-01, 3.52387279e-01, 3.88949644e-03, 7.71812489e-03,
          1.05784545e-02, 4.77908216e-02, 5.53556997e-03, 1.10055204e-03,
          1.82695419e-03, 3.52387279e-01, 3.52552921e-01, 0., 0., 0., 0.,
          0., 0., 0., 3.52552921e-01, 3.52552921e-01, 1.88110556e-04,
          1.61846314e-04, 1.55988513e-04, 8.24579445e-04, 2.41722650e-04,
          2.53812235e-04, 4.51815285e-04, 3.52552921e-01, 3.52552921e-01,
          3.76219582e-03, 7.60021526e-03, 1.03143714e-02, 4.34812196e-02,
          5.06046321e-03, 1.22762437e-03, 2.29068031e-03, 3.52552921e-01,
          3.52552921e-01, 1.99742406e-03, 1.39753253e-03, 1.16439210e-03,
          4.13312810e-03, 7.08941603e-04, 7.12276204e-04, 1.14909140e-03,
          3.52552921e-01, 3.14943641e-01, 2.20086193e-03, 2.98901647e-03,
          9.15840454e-03, 2.30270669e-01, 1.15572438e-02, 8.12265556e-03,
          1.53002869e-02, 3.14943641e-01, 1.43963948e-01, 2.32796231e-03,
          3.13309836e-03, 1.18265301e-02, 3.14943641e-01, 1.51499184e-02,
          9.73584224e-03, 1.77149288e-02, 1.58626959e-01, 3.14943641e-01,
          1.09667275e-02, 8.20489693e-03, 2.17825584e-02, 3.14943641e-01,
          2.10137721e-02, 1.11394096e-02, 1.95569694e-02, 3.14943641e-01,
          3.14943641e-01, 9.28127673e-03, 7.95399491e-03, 2.70223729e-02,
          3.14943641e-01, 2.67793536e-02, 1.30438479e-02, 2.30898298e-02,
          3.14943641e-01, 1.78645197e-02, 8.89318064e-04, 1.15200120e-03,
          5.79257356e-03, 1.65486783e-01, 7.57287396e-03, 4.39919857e-03,
          7.37888459e-03, 2.48333402e-02, 0., 0., 0., 0., 0., 0., 0., 0.,
          0., 4.36168730e-01, 2.89078080e-03, 3.03915283e-03,
          1.28837451e-02, 4.36168730e-01, 1.30848372e-02, 5.83973480e-03,
          1.02962339e-02, 4.36168730e-01, 4.36168730e-01, 1.56408048e-03,
          1.86330837e-03, 9.62839182e-03, 1.20841183e-01, 2.16521043e-02,
          1.10948319e-02, 1.22793484e-02, 4.36168730e-01, 2.54294544e-01,
          1.82373062e-01, 1.38000309e-01, 1.30731955e-01, 2.52083391e-01,
          7.55678788e-02, 6.56004548e-02, 5.26180342e-02, 2.33970225e-01,
          2.54294544e-01, 2.14684471e-01, 1.38449281e-01, 1.52422756e-01,
          2.54294544e-01, 1.29556865e-01, 1.01101555e-01, 7.52739906e-02,
          2.54294544e-01, 2.54294544e-01, 1.83308691e-01, 1.67241499e-01,
          1.88231185e-01, 2.45627031e-01, 7.50611946e-02, 5.58816679e-02,
          5.16405180e-02, 2.31577694e-01, 2.54294544e-01, 1.08228572e-01,
          7.30231553e-02, 5.86532317e-02, 8.05899128e-02, 3.88583168e-02,
          3.88399251e-02, 3.28182541e-02, 1.85397476e-01, 3.36591005e-01,
          5.66903763e-02, 2.35851593e-02, 2.33510137e-02, 6.73867837e-02,
          2.16870829e-02, 1.92591976e-02, 2.55005453e-02, 3.20171386e-01,
          3.36591005e-01, 3.81306894e-02, 1.86380204e-02, 1.79778263e-02,
          8.46880525e-02, 2.50803735e-02, 2.12676469e-02, 4.96258475e-02,
          3.36591005e-01, 3.36591005e-01, 6.93786740e-02, 4.61828336e-02,
          3.77176814e-02, 9.01274681e-02, 3.74396294e-02, 4.08027470e-02,
          7.31793568e-02, 3.36591005e-01, 3.36591005e-01, 9.87198874e-02,
          6.11448772e-02, 4.87163961e-02, 1.27702668e-01, 5.64902909e-02,
          5.84517419e-02, 1.19151510e-01, 3.36591005e-01, 2.82498300e-01,
          7.38572255e-02, 7.71431252e-02, 1.07918970e-01, 2.82498300e-01,
          1.45384401e-01, 1.15056135e-01, 1.62408799e-01, 2.82498300e-01,
          2.82498300e-01, 5.46186008e-02, 5.82095385e-02, 7.94619098e-02,
          2.82498300e-01, 1.35397002e-01, 1.53590858e-01, 1.63408294e-01,
          2.82498300e-01, 2.82498300e-01, 5.01307920e-02, 3.38109098e-02,
          2.82293428e-02, 7.98306987e-02, 4.67124134e-02, 5.46161607e-02,
          9.06984955e-02, 2.82498300e-01, 1.92807227e-01, 3.12614068e-02,
          2.93986183e-02, 3.21343578e-02, 1.25898123e-01, 1.09562457e-01,
          1.23868622e-01, 1.21007018e-01, 2.67421275e-01, 1.72680900e-01,
          2.30315272e-02, 2.39927657e-02, 2.20782515e-02, 9.89245027e-02,
          1.15435198e-01, 1.24077298e-01, 1.11788794e-01, 2.28303686e-01,
          1.49259374e-01, 1.02572693e-02, 1.90789364e-02, 3.03228460e-02,
          3.23709577e-01, 3.00020408e-02, 1.13959834e-02, 1.23261157e-02,
          1.49297118e-01, 3.23709577e-01, 5.66536896e-02, 7.27002844e-02,
          1.22309342e-01, 3.23709577e-01, 3.23709577e-01, 2.51262575e-01,
          1.99769899e-01, 3.23709577e-01, 1.35808483e-01, 2.03192979e-02,
          2.96612252e-02, 6.15940690e-02, 3.23709577e-01, 1.06834263e-01,
          5.32573573e-02, 3.82314101e-02, 1.43610701e-01, 3.34424257e-01,
          8.80461093e-03, 1.72636155e-02, 2.74734609e-02, 3.06620657e-01,
          1.50205847e-02, 3.43070505e-03, 6.05963590e-03, 3.34424257e-01,
          3.34424257e-01, 1.54188825e-02, 1.26294270e-02, 1.29264202e-02,
          2.92649716e-02, 9.03024618e-03, 7.79921701e-03, 8.28198809e-03,
          3.34424257e-01, 2.31380478e-01, 5.14043961e-03, 9.22755245e-03,
          1.76676326e-02, 3.34424257e-01, 1.11532426e-02, 2.48306943e-03,
          4.14118683e-03, 2.29815975e-01, 3.34424257e-01, 2.96549946e-02,
          2.46350057e-02, 2.40982231e-02, 7.68716410e-02, 2.37717256e-02,
          2.40392499e-02, 2.61898804e-02, 3.34424257e-01, 3.20356101e-01,
          3.08759902e-02, 2.20915359e-02, 2.63392311e-02, 1.67701513e-01,
          2.40058601e-02, 2.24236120e-02, 2.92126983e-02, 3.20356101e-01,
          3.20356101e-01, 2.39948947e-02, 1.60361845e-02, 2.26668697e-02,
          2.18421757e-01, 2.45379377e-02, 2.37499624e-02, 3.30235921e-02,
          3.20356101e-01, 3.20356101e-01, 8.91986638e-02, 6.28868937e-02,
          5.42883240e-02, 1.04964368e-01, 6.02939948e-02, 7.26379603e-02,
          9.77557898e-02, 3.20356101e-01, 3.20356101e-01, 8.81151333e-02,
          5.91566227e-02, 5.00570089e-02, 1.19220458e-01, 5.61596081e-02,
          7.31264576e-02, 1.06974855e-01, 3.20356101e-01, 3.32430094e-01,
          5.10189403e-03, 3.35052353e-03, 6.53560506e-03, 8.10819417e-02,
          8.40804633e-03, 8.00455268e-03, 1.09699983e-02, 3.32430094e-01,
          3.32430094e-01, 1.16427417e-03, 1.26870791e-03, 8.08800478e-03,
          2.43570700e-01, 1.55150564e-02, 7.10091833e-03, 7.82873761e-03,
          3.32430094e-01, 3.32430094e-01, 2.57077664e-02, 1.80324242e-02,
          1.68957077e-02, 5.30020520e-02, 1.65681634e-02, 2.22559776e-02,
          3.39887999e-02, 3.32430094e-01, 2.72689253e-01, 8.10287602e-04,
          7.51175568e-04, 5.99079207e-03, 3.32430094e-01, 9.83008370e-03,
          3.79546313e-03, 4.14642552e-03, 2.75540680e-01, 2.13286445e-01,
          8.08527768e-02, 9.01101604e-02, 1.52928591e-01, 2.71280676e-01,
          1.64673805e-01, 1.00516021e-01, 9.21017006e-02, 2.24156052e-01,
          5.34916706e-02, 1.54174622e-02, 1.50378570e-02, 1.34916771e-02,
          3.03167850e-02, 1.49722947e-02, 1.67362429e-02, 2.07975283e-02,
          5.59965149e-02, 2.71280676e-01, 6.55646697e-02, 5.73551841e-02,
          6.97553530e-02, 2.71280676e-01, 2.41944700e-01, 2.45759770e-01,
          2.71280676e-01, 2.71280676e-01, 2.71280676e-01, 6.43355250e-02,
          3.71415094e-02, 4.42354083e-02, 2.61805385e-01, 1.12268038e-01,
          1.43088117e-01, 2.31663764e-01, 2.71280676e-01, 3.33487272e-01,
          5.81371114e-02, 4.31495793e-02, 3.53097878e-02, 7.64292404e-02,
          3.44627574e-02, 4.62218896e-02, 7.66607076e-02, 3.33487272e-01,
          3.33487272e-01, 9.78304893e-02, 6.62175938e-02, 5.28868213e-02,
          1.26223370e-01, 6.03814572e-02, 7.17202723e-02, 1.25206098e-01,
          3.33487272e-01, 3.33487272e-01, 3.50842066e-02, 2.22136788e-02,
          2.00082418e-02, 4.71586958e-02, 2.09280029e-02, 3.47358882e-02,
          5.89237027e-02, 3.33487272e-01, 3.33487272e-01, 5.72356544e-02,
          3.64983194e-02, 3.16027068e-02, 7.68639594e-02, 3.10011879e-02,
          3.98954339e-02, 6.88683838e-02, 3.33487272e-01, 2.93025076e-01,
          5.58570474e-02, 3.73946689e-02, 2.99215596e-02, 8.60681683e-02,
          3.99940126e-02, 3.88086475e-02, 6.75196350e-02, 2.93025076e-01,
          1.29358605e-01, 5.14525250e-02, 5.51712513e-02, 6.70605600e-02,
          1.51614562e-01, 6.80964142e-02, 4.51450273e-02, 4.04611267e-02,
          1.22727282e-01, 2.93025076e-01, 1.76758364e-01, 1.02742240e-01,
          1.05753951e-01, 2.93025076e-01, 6.98978752e-02, 5.04208282e-02,
          7.81704634e-02, 2.93025076e-01, 2.93025076e-01, 2.62767375e-01,
          2.03633592e-01, 1.73948914e-01, 2.93025076e-01, 6.54541627e-02,
          4.11716737e-02, 5.58594987e-02, 2.93025076e-01, 2.65275776e-01,
          1.00322276e-01, 1.24403976e-01, 2.02158168e-01, 3.28722060e-01,
          2.01278329e-01, 1.14440404e-01, 9.05579478e-02, 2.57359445e-01,
          7.29612932e-02, 2.69121081e-02, 3.61271687e-02, 6.90812618e-02,
          3.28722060e-01, 6.74641356e-02, 3.59271020e-02, 2.54995041e-02,
          7.14459941e-02, 3.22864741e-01, 1.77168772e-01, 1.83859453e-01,
          2.04574421e-01, 2.66669154e-01, 6.21939860e-02, 3.49793918e-02,
          4.82388958e-02, 2.50051737e-01, 1.18457250e-01, 2.87850779e-02,
          3.20203863e-02, 4.80912812e-02, 3.28722060e-01, 1.94129776e-02,
          1.89023390e-02, 2.04467978e-02, 1.10910654e-01, 1.11644273e-03,
          4.69099003e-04, 3.81322228e-04, 9.00404353e-04, 3.93717468e-01,
          6.06161542e-04, 3.50136630e-04, 3.68914800e-04, 1.16572098e-03,
          1.35956362e-01, 3.06078847e-02, 2.44979542e-02, 2.17805021e-02,
          9.59564000e-02, 2.57220119e-02, 3.01799476e-02, 3.44078317e-02,
          1.46479592e-01, 3.93717468e-01, 1.49681969e-02, 6.31949259e-03,
          6.11434644e-03, 3.93717468e-01, 9.49924625e-03, 1.83045268e-02,
          2.20833514e-02, 3.93717468e-01, 3.93717468e-01, 2.51831599e-02,
          2.20137872e-02, 2.18338221e-02, 8.59342664e-02, 2.30588540e-02,
          2.16765683e-02, 2.94924136e-02, 3.93717468e-01, 3.28987807e-01,
          7.42650479e-02, 5.11713922e-02, 4.16205935e-02, 8.53980035e-02,
          5.17974049e-02, 6.25436008e-02, 8.97106305e-02, 3.28987807e-01,
          3.28987807e-01, 8.03840533e-02, 5.38871102e-02, 4.38078456e-02,
          1.01434737e-01, 5.16475067e-02, 6.30383939e-02, 1.00684576e-01,
          3.28987807e-01, 3.28987807e-01, 5.86838275e-02, 4.59458977e-02,
          4.64697629e-02, 1.00584194e-01, 6.09056167e-02, 4.82377633e-02,
          7.01792762e-02, 3.28987807e-01, 3.28987807e-01, 6.19088300e-02,
          4.51389626e-02, 4.41185944e-02, 1.08996667e-01, 6.31960630e-02,
          4.99967895e-02, 7.55758286e-02, 3.28987807e-01, 2.80378163e-01,
          4.03710678e-02, 2.86055543e-02, 2.55673528e-02, 7.26833120e-02,
          2.36924067e-02, 2.93610357e-02, 5.18779792e-02, 2.79204726e-01,
          2.76235980e-04, 3.02687386e-05, 3.26068839e-05, 2.01329574e-04,
          3.69850993e-01, 1.03188453e-04, 4.24410246e-05, 4.44865873e-05,
          2.98384926e-04, 3.69850993e-01, 2.57601608e-02, 1.78687312e-02,
          1.50684435e-02, 5.35710976e-02, 2.48405691e-02, 2.17617769e-02,
          3.31425443e-02, 3.69850993e-01, 3.69850993e-01, 1.20741324e-02,
          6.62282109e-03, 4.41752980e-03, 3.69850993e-01, 3.31502804e-03,
          1.33158162e-03, 2.95428513e-03, 3.69850993e-01, 2.46206254e-01,
          3.85572612e-02, 3.08719464e-02, 3.67982239e-02, 3.34148377e-01,
          1.11754179e-01, 1.30480424e-01, 1.80415019e-01, 3.34148377e-01,
          3.34148377e-01, 6.55046776e-02, 3.36282142e-02, 4.99950834e-02,
          3.34148377e-01, 1.09350421e-01, 1.25698656e-01, 2.13774741e-01,
          3.34148377e-01, 5.56509476e-03, 1.10213482e-03, 6.34922821e-04,
          3.33235087e-03, 3.34148377e-01, 4.51248512e-03, 1.34154258e-03,
          2.20711157e-03, 6.81884913e-03, 4.83474955e-02, 7.02959578e-03,
          3.22908536e-03, 8.75072554e-03, 3.34148377e-01, 1.21033164e-02,
          7.84657523e-03, 1.49935242e-02, 6.47910386e-02, 4.05465454e-01,
          5.17545566e-02, 2.32691132e-02, 2.21715644e-02, 1.31392926e-01,
          2.94298641e-02, 5.09535111e-02, 1.00784376e-01, 4.05465454e-01,
          4.05465454e-01, 8.13711882e-02, 3.69349420e-02, 3.48868556e-02,
          2.09322214e-01, 2.77327355e-02, 2.61542406e-02, 6.12076484e-02,
          4.05465454e-01, 1.52342230e-01, 7.98895210e-03, 3.13505600e-03,
          3.27662565e-03, 1.82559952e-01, 4.22393391e-03, 6.85300119e-03,
          1.44642955e-02, 1.74514234e-01, 2.07388401e-01, 1.39672225e-02,
          5.59806358e-03, 6.23973459e-03, 2.73807377e-01, 7.10565923e-03,
          4.14722692e-03, 9.58202593e-03, 1.99429020e-01, 3.51784497e-01,
          1.14777803e-01, 6.10880814e-02, 7.54541382e-02, 3.51784497e-01,
          4.82395440e-02, 2.54365690e-02, 3.89400944e-02, 3.40668827e-01,
          2.67627180e-01, 1.25900716e-01, 8.72025937e-02, 7.66036436e-02,
          3.51784497e-01, 3.49308066e-02, 1.98730435e-02, 2.64629424e-02,
          1.96625784e-01, 1.29970625e-01, 1.35255167e-02, 7.86323193e-03,
          1.68719962e-02, 3.51784497e-01, 2.11256295e-02, 8.65955558e-03,
          9.95843206e-03, 1.16450556e-01, 1.75983995e-01, 4.97061945e-03,
          3.54987034e-03, 8.94406531e-03, 3.51784497e-01, 1.13367233e-02,
          4.84709907e-03, 4.66090115e-03, 1.72596991e-01, 3.25366408e-01,
          1.79228723e-01, 1.65148407e-01, 1.36086613e-01, 1.23867013e-01,
          4.23581079e-02, 2.50131097e-02, 3.96434888e-02, 2.47022063e-01,
          2.54268557e-01, 3.11612785e-02, 2.24852171e-02, 2.48598456e-02,
          3.46287459e-01, 2.18693912e-02, 3.60794216e-02, 3.85408923e-02,
          2.50202805e-01, 3.46287459e-01, 5.29131619e-04, 3.43362160e-04,
          2.52489379e-04, 1.67472614e-03, 2.16959394e-04, 2.42994094e-04,
          3.12006334e-04, 3.46287459e-01, 3.46287459e-01, 3.27649317e-03,
          1.57931075e-03, 1.47710985e-03, 1.19142318e-02, 2.40098056e-03,
          4.83863382e-03, 5.17893257e-03, 3.46287459e-01, 3.28312129e-01,
          1.83581356e-02, 7.64453458e-03, 7.34424917e-03, 3.28312129e-01,
          1.11157550e-02, 2.17709634e-02, 2.68554240e-02, 3.28312129e-01,
          3.28312129e-01, 1.43524604e-02, 1.36366934e-02, 1.95149016e-02,
          9.08233374e-02, 1.64900348e-02, 1.15368245e-02, 1.67681742e-02,
          3.28312129e-01, 3.28312129e-01, 2.96763401e-03, 1.23292196e-03,
          1.18602416e-03, 7.10738869e-03, 1.53781590e-03, 3.12081608e-03,
          4.08315519e-03, 3.28312129e-01, 3.28312129e-01, 2.42182310e-03,
          2.69401330e-03, 8.08259379e-03, 1.22214682e-01, 5.11135161e-03,
          2.43862625e-03, 2.42761546e-03, 3.28312129e-01, 3.20789337e-01,
          7.00042024e-02, 6.48734197e-02, 9.73791555e-02, 3.20789337e-01,
          1.07831843e-01, 5.86666949e-02, 7.44999349e-02, 3.20789337e-01,
          3.20789337e-01, 6.96723685e-02, 5.95115833e-02, 8.59881714e-02,
          3.20789337e-01, 1.05062090e-01, 5.73414117e-02, 7.12706298e-02,
          3.20789337e-01, 1.91521063e-01, 1.23823499e-02, 1.39286313e-02,
          4.16264683e-02, 3.20789337e-01, 3.32755633e-02, 1.30293323e-02,
          1.01262182e-02, 1.95055544e-01, 9.42336842e-02, 1.16298841e-02,
          1.24405082e-02, 3.62323299e-02, 3.20789337e-01, 3.07269413e-02,
          1.15274452e-02, 8.86300392e-03, 9.65211242e-02, 4.26491708e-01,
          1.40198441e-02, 1.02717923e-02, 9.50135104e-03, 3.83514538e-02,
          1.95765458e-02, 1.24006132e-02, 1.33416411e-02, 4.26491708e-01,
          4.26491708e-01, 2.09983792e-02, 1.20368237e-02, 7.87198823e-03,
          4.26491708e-01, 5.78698609e-03, 2.65896600e-03, 5.56186493e-03,
          4.26491708e-01, 1.51052028e-01, 1.42615603e-03, 1.19492458e-03,
          1.89381512e-03, 1.26305008e-02, 3.32368282e-03, 1.46084337e-03,
          1.10289920e-03, 1.51191786e-01, 1.37040898e-01, 2.79614492e-03,
          1.87651254e-03, 1.17897685e-03, 8.71851388e-03, 8.28118180e-04,
          5.58630098e-04, 9.65088024e-04, 1.35051087e-01, 4.34329500e-03,
          2.52509932e-03, 2.45052413e-03, 5.62958745e-03, 3.48834485e-01,
          5.72648365e-03, 1.69888418e-03, 1.88722217e-03, 4.67993179e-03,
          1.01921773e-02, 5.42579917e-03, 5.44205261e-03, 1.27669638e-02,
          3.48834485e-01, 1.29359663e-02, 4.31198021e-03, 4.90890210e-03,
          1.12361107e-02, 2.46427074e-01, 5.45102879e-02, 5.46139106e-02,
          7.49313086e-02, 3.48834485e-01, 8.99312794e-02, 6.56118318e-02,
          6.69209063e-02, 2.51045763e-01, 3.48834485e-01, 9.46270972e-02,
          1.06893726e-01, 1.65176958e-01, 3.48834485e-01, 1.80724695e-01,
          1.25761673e-01, 1.31468549e-01, 3.48834485e-01, 1.36386864e-02,
          6.47366839e-03, 6.76551973e-03, 1.56570207e-02, 4.21653181e-01,
          1.56019349e-02, 6.28315192e-03, 7.16174208e-03, 1.53888790e-02,
          6.92687929e-02, 4.11974546e-03, 6.36547711e-03, 1.37415817e-02,
          4.21653181e-01, 3.05302162e-02, 1.34189250e-02, 1.42688211e-02,
          5.83747886e-02, 3.61475676e-01, 1.03961669e-01, 1.33648649e-01,
          2.21094280e-01, 4.21653181e-01, 2.03234360e-01, 1.42097920e-01,
          1.52270317e-01, 3.96932155e-01, 1.38472486e-02, 1.04501459e-03,
          1.26844319e-03, 1.98873761e-03, 2.70114299e-02, 4.64682514e-03,
          2.37481366e-03, 2.96025863e-03, 1.17203873e-02, 3.06800902e-01,
          7.29662366e-03, 1.06605142e-02, 2.28679460e-02, 4.37285960e-01,
          4.87965308e-02, 2.37700325e-02, 2.33874377e-02, 2.95532346e-01,
          4.37285960e-01, 4.86790622e-03, 6.53642416e-03, 1.35554168e-02,
          4.37285960e-01, 2.77357809e-02, 1.49214808e-02, 1.39252013e-02,
          4.37285960e-01, 5.88090867e-02, 1.89194502e-03, 2.21688068e-03,
          3.39720678e-03, 4.19548191e-02, 7.49669177e-03, 4.23816545e-03,
          4.90837684e-03, 5.63660823e-02, 1.31944984e-01, 1.27540610e-03,
          1.42040965e-03, 2.08966434e-03, 2.33273674e-02, 4.31099255e-03,
          2.69548898e-03, 2.95204762e-03, 1.30998537e-01, 4.54171032e-01,
          1.58745228e-04, 1.02959828e-04, 8.91993986e-05, 7.88434234e-04,
          1.10987225e-04, 1.29494074e-04, 2.15805485e-04, 4.54171032e-01,
          4.54171032e-01, 0., 0., 0., 0., 0., 0., 0., 4.54171032e-01,
          2.05048248e-01, 4.35569600e-05, 2.88841857e-05, 2.43894629e-05,
          8.72453529e-05, 3.29217000e-05, 3.29001232e-05, 4.66845522e-05,
          2.05089897e-01, 2.07690492e-01, 0., 0., 0., 0., 0., 0., 0.,
          2.07690492e-01, 4.50674683e-01, 0., 0., 0., 0., 0., 0., 0.,
          4.50674683e-01, 4.50674683e-01, 1.86816289e-03, 1.90517958e-03,
          6.57281373e-03, 1.25272647e-01, 2.59833992e-03, 8.80396808e-04,
          3.94655304e-04, 4.50674683e-01, 2.03448325e-01, 0., 0., 0., 0.,
          0., 0., 0., 2.03448325e-01, 2.05544770e-01, 4.03697632e-04,
          3.77770339e-04, 1.02251989e-03, 3.13787954e-03, 4.00670193e-04,
          1.89700280e-04, 9.46495275e-05, 2.05606163e-01, 4.53465790e-01,
          2.49335356e-02, 2.44964957e-02, 7.21481219e-02, 4.53465790e-01,
          3.17035466e-02, 1.23735070e-02, 6.78961538e-03, 4.53465790e-01,
          2.26924583e-01, 2.35424619e-02, 2.28021741e-02, 6.14122711e-02,
          4.53465790e-01, 2.84132380e-02, 1.19202398e-02, 7.64513109e-03,
          2.26680011e-01, 1.58150896e-01, 5.39248204e-03, 4.84802015e-03,
          1.13289729e-02, 3.58808301e-02, 4.97177336e-03, 2.69640284e-03,
          1.72068470e-03, 1.58428803e-01, 4.36354652e-02, 5.12346672e-03,
          4.52093128e-03, 9.76961292e-03, 3.14716697e-02, 4.51397290e-03,
          2.65001203e-03, 1.99049199e-03, 4.35806774e-02, 3.68270367e-01,
          1.29368052e-01, 1.11707591e-01, 9.65208560e-02, 7.89504170e-01,
          9.86066833e-02, 1.36804581e-01, 1.60117835e-01, 3.42029035e-01,
          0., 0., 0., 0., 0., 0., 0., 0., 0., 8.24275017e-02,
          3.18582579e-02, 2.49262042e-02, 2.13448349e-02, 6.91884384e-02,
          2.07584426e-02, 3.32921743e-02, 4.30245548e-02, 8.07832628e-02,
          0., 0., 0., 0., 0., 0., 0., 0., 0., 2.72632390e-01,
          4.07050103e-02, 3.51383239e-02, 3.65799367e-02, 7.90380985e-02,
          3.92093286e-02, 3.75849754e-02, 5.50897494e-02, 2.87828505e-01,
          3.39369327e-01, 6.51724190e-02, 5.77059872e-02, 6.61677495e-02,
          1.53184891e-01, 7.09819645e-02, 6.07615821e-02, 9.33905691e-02,
          3.39369327e-01, 3.39369327e-01, 6.32831901e-02, 4.44021635e-02,
          3.79629657e-02, 5.68322502e-02, 3.80474441e-02, 4.67323810e-02,
          8.67906883e-02, 3.39369327e-01, 3.39369327e-01, 1.07749559e-01,
          7.38918260e-02, 5.92374839e-02, 9.33197215e-02, 6.50883839e-02,
          6.89774305e-02, 1.37760177e-01, 3.39369327e-01, 4.13920254e-01,
          9.41937119e-02, 8.97766575e-02, 1.15716040e-01, 2.61326402e-01,
          1.10559203e-01, 8.68981481e-02, 1.36143640e-01, 4.13920254e-01,
          9.26990644e-04, 4.27476189e-04, 2.85247865e-04, 4.10283188e-04,
          6.32278679e-04, 2.27008059e-04, 1.85741548e-04, 3.45361448e-04,
          7.97155488e-04, 4.13920254e-01, 1.83633417e-01, 1.32864714e-01,
          1.12749316e-01, 1.97681278e-01, 1.19875617e-01, 1.06399782e-01,
          2.11411268e-01, 4.13920254e-01, 4.49457765e-03, 2.12401990e-03,
          1.56741857e-03, 1.93054648e-03, 3.74036212e-03, 1.34099030e-03,
          1.20633456e-03, 1.90189702e-03, 4.11500316e-03, 0., 0., 0., 0.,
          0., 0., 0., 0., 0., 0., 0., 0., 0., 0., 0., 0., 0., 0., 0., 0.,
          0., 0., 0., 0., 0., 0., 0., 0., 0., 0., 0., 0., 0., 0., 0., 0.,
          0., 0., 0., 0., 0., 0., 0., 0., 0., 0., 0., 0., 0., 0., 0., 0.,
          0., 0., 0., 0., 0., 0., 0., 0., 0., 0., 0., 0., 0., 0., 0., 0.,
          0., 0., 0., 0., 0., 0., 0., 0., 0., 0., 0., 0., 0., 0., 0., 0.,
          0., 0., 0., 0., 0., 0., 0., 0., 0., 0., 0., 0., 0., 0., 0., 0.,
          0., 0., 0., 0., 0., 0., 0., 0., 0., 0., 0., 0., 0., 0., 0., 0.,
          0., 0., 0., 0., 0., 0., 0., 0., 0., 0., 0., 0., 0., 0., 0., 0.,
          0., 0., 0., 0., 0., 0., 0., 0., 0., 0., 0., 0., 0., 0., 0., 0.,
          0., 0., 0., 0., 0., 0., 0., 0., 0., 0., 0., 0., 0., 0., 0., 0.,
          0., 0., 0., 0., 0., 0., 0., 0., 0., 0., 0., 0., 0., 0., 0., 0. ]
      - [ 0., 0., 0., 0., 0., 0., 0., 0., 0., 0., 0., 0., 0., 0., 0., 0.,
          0., 0., 0., 0., 0., 0., 0., 0., 0., 0., 0., 0., 0., 0., 0., 0.,
          0., 0., 0., 0., 0., 0., 0., 0., 0., 0., 0., 0., 0., 0., 0., 0.,
          0., 0., 0., 0., 0., 0., 0., 0., 0., 0., 0., 0., 0., 0., 0., 0.,
          0., 0., 0., 0., 0., 0., 0., 0., 0., 0., 0., 0., 0., 0., 0., 0.,
          0., 0., 0., 0., 0., 0., 0., 0., 0., 0., 0., 0., 0., 0., 0., 0.,
          0., 0., 0., 0., 0., 0., 0., 0., 0., 0., 0., 0., 0., 0., 0., 0.,
          0., 0., 0., 0., 0., 0., 0., 0., 0., 0., 0., 0., 0., 0., 0., 0.,
          0., 0., 0., 0., 0., 0., 0., 0., 0., 0., 0., 0., 0., 0., 0., 0.,
          0., 0., 0., 0., 0., 0., 0., 0., 0., 0., 0., 0., 0., 0., 0., 0.,
          0., 0., 0., 0., 0., 0., 0., 0., 0., 0., 0., 0., 0., 0., 0., 0.,
          0., 0., 0., 0., 0., 0., 0., 0., 0., 0., 0., 0., 0., 0., 0., 0.,
          0., 0., 0., 0., 0., 0., 0., 0., 0., 0., 0., 0., 0., 0., 0., 0.,
          0., 0., 0., 0., 0., 0., 0., 0., 2.47902656e-03, 1.80971192e-03,
          2.66091339e-03, 4.18213289e-03, 1.09666539e-02, 4.68314672e-03,
          1.98347028e-03, 1.60944159e-03, 2.35817838e-03, 3.29880416e-01,
          2.24324122e-01, 1.77053779e-01, 2.80507445e-01, 3.29880416e-01,
          3.02979738e-01, 1.67607859e-01, 2.08513066e-01, 3.29880416e-01,
          6.42681334e-05, 7.24472284e-06, 1.80992301e-05, 1.91577074e-05,
          1.88057558e-04, 1.61235330e-05, 2.17001052e-05, 1.05579429e-05,
          6.50859874e-05, 2.46084005e-01, 1.03836395e-01, 8.12938139e-02,
          2.05285266e-01, 3.29880416e-01, 1.98853046e-01, 8.74931067e-02,
          9.62592438e-02, 2.46895209e-01, 0., 0., 0., 0., 0., 0., 0., 0.,
          0., 0., 0., 0., 0., 0., 0., 0., 0., 0., 0., 0., 0., 0., 0., 0.,
          0., 0., 0., 0., 0., 0., 0., 0., 0., 0., 0., 0., 1.93147804e-03,
          4.87786398e-04, 3.98280856e-04, 4.73090098e-04, 3.55634326e-03,
          1.02285405e-04, 6.65701446e-05, 1.95153716e-05, 2.10127141e-03,
          9.94077921e-02, 4.81834495e-03, 3.26431473e-03, 4.32316819e-03,
          2.80569848e-02, 1.37689395e-03, 4.55028086e-04, 2.03381991e-04,
          1.05577126e-01, 1.81045253e-02, 5.57240099e-03, 6.49911445e-03,
          1.02763288e-02, 2.71778911e-01, 6.26490824e-03, 2.82247551e-03,
          8.42476147e-04, 1.97372083e-02, 5.34339309e-01, 8.92511681e-02,
          8.36897492e-02, 1.47458687e-01, 5.34339309e-01, 6.38180524e-02,
          1.97697170e-02, 1.52046876e-02, 5.34339309e-01, 1.05076365e-01,
          1.31635333e-03, 9.98357893e-04, 1.29891955e-03, 7.54733337e-03,
          4.89770493e-04, 2.19748035e-04, 1.02167127e-04, 1.10283405e-01,
          1.00823916e-01, 3.35863821e-04, 7.58170674e-04, 5.37594140e-04,
          1.31879596e-03, 6.38459751e-05, 7.56642839e-05, 2.91174238e-05,
          1.06011011e-01, 4.23127621e-01, 7.28489533e-02, 8.06702524e-02,
          8.09443071e-02, 4.23127621e-01, 2.19222102e-02, 1.08552705e-02,
          1.06077995e-02, 4.23127621e-01, 4.23127621e-01, 8.59115347e-02,
          1.09004036e-01, 8.44862759e-02, 9.42263901e-02, 2.43484098e-02,
          2.05121860e-02, 2.33740509e-02, 4.23127621e-01, 9.73158553e-02,
          7.69738748e-04, 1.56677107e-03, 9.98223666e-04, 8.64024390e-04,
          8.31591478e-06, 5.81996283e-05, 6.80456360e-05, 1.03752807e-01,
          7.23223984e-02, 1.12758111e-03, 1.60953857e-03, 6.72885973e-04,
          2.69101671e-04, 0., 9.55740688e-05, 1.14639508e-04,
          7.73103833e-02, 4.50928062e-01, 1.42991871e-01, 1.41082495e-01,
          1.16349086e-01, 1.41513795e-01, 5.81115074e-02, 6.19651228e-02,
          9.33682993e-02, 4.50928062e-01, 4.50928062e-01, 1.28488243e-01,
          1.12345271e-01, 7.46655837e-02, 1.04880080e-01, 4.80302088e-02,
          6.03773706e-02, 9.58824605e-02, 4.50928062e-01, 1.03819706e-01,
          2.51886435e-03, 3.15140490e-03, 6.97533833e-04, 4.99228656e-04,
          1.12525122e-05, 2.10854312e-04, 2.08677404e-04, 1.12783097e-01,
          5.88929579e-02, 1.74376974e-03, 2.00418243e-03, 1.27241272e-03,
          5.24705648e-03, 6.11353666e-04, 7.55497604e-04, 7.56476831e-04,
          6.65295348e-02, 4.04911816e-01, 1.57134920e-01, 1.92402273e-01,
          6.18156381e-02, 1.80400431e-01, 2.85755787e-02, 4.61916439e-02,
          5.09589389e-02, 4.04911816e-01, 4.04911816e-01, 9.46312323e-02,
          1.42695829e-01, 8.46487507e-02, 4.04911816e-01, 4.55976017e-02,
          4.34210114e-02, 2.58729663e-02, 4.04911816e-01, 5.33619598e-02,
          1.44116906e-03, 1.73241214e-03, 4.08366043e-03, 2.40863785e-02,
          3.12529155e-03, 3.20211239e-03, 2.96400674e-03, 6.18708357e-02,
          7.80305942e-04, 1.30643384e-05, 3.98612210e-05, 3.17458704e-04,
          2.06675543e-03, 2.83540547e-04, 2.97705963e-04, 1.94045031e-04,
          1.00389612e-03, 5.03243268e-01, 7.48855174e-02, 1.56819329e-01,
          3.07613969e-01, 5.03243268e-01, 2.10505992e-01, 1.15480937e-01,
          6.52168542e-02, 5.03243268e-01, 8.05433746e-03, 3.30704002e-04,
          2.08053202e-03, 2.13609319e-02, 2.00661227e-01, 1.54103125e-02,
          5.67664346e-03, 2.60847644e-03, 1.02412216e-02, 9.61914120e-05,
          1.90300689e-05, 3.74461670e-05, 2.73831047e-05, 2.79844535e-04,
          6.46683429e-06, 2.41559774e-05, 1.93308988e-05, 9.81573830e-05,
          2.15409741e-01, 8.80039632e-02, 8.27544108e-02, 2.42893606e-01,
          5.58661401e-01, 2.39568591e-01, 9.16635394e-02, 9.26406235e-02,
          2.15718105e-01, 6.57028504e-05, 1.12896287e-05, 2.64739738e-05,
          1.20773902e-05, 2.84232956e-04, 3.22783512e-06, 2.15709388e-05,
          1.06740499e-05, 6.63397732e-05, 1.33461475e-01, 5.19340560e-02,
          6.45939931e-02, 1.95553660e-01, 5.58661401e-01, 1.95800364e-01,
          6.58776611e-02, 6.09897152e-02, 1.41393438e-01, 0., 0., 0., 0.,
          0., 0., 0., 0., 0., 0., 0., 0., 0., 0., 0., 0., 0., 0., 0., 0.,
          0., 0., 0., 0., 0., 0., 0., 0., 0., 0., 0., 0., 0., 0., 0., 0.,
          6.00956101e-03, 2.12386902e-03, 3.00195115e-03, 6.24863477e-03,
          2.23440528e-01, 5.13711618e-03, 1.75592385e-03, 5.51158504e-04,
          6.47336245e-03, 2.93763936e-01, 4.99526225e-02, 5.60817905e-02,
          1.15543455e-01, 5.65837562e-01, 5.07476293e-02, 1.47386109e-02,
          1.27206696e-02, 3.05890352e-01, 1.70195627e-03, 7.67157937e-04,
          1.90821348e-03, 6.51785312e-03, 2.53029734e-01, 6.24156138e-03,
          1.67146558e-03, 8.14926869e-04, 1.68785267e-03, 4.91623618e-02,
          4.70281541e-02, 6.24414422e-02, 1.50306970e-01, 5.65837562e-01,
          6.43775538e-02, 2.20643617e-02, 2.32569873e-02, 4.11967970e-02,
          2.90074825e-01, 7.80343264e-02, 8.81593451e-02, 9.51466933e-02,
          2.90074825e-01, 2.86943205e-02, 1.70349050e-02, 1.85869820e-02,
          2.90074825e-01, 2.90074825e-01, 1.20769024e-01, 1.29226953e-01,
          1.20679200e-01, 1.52970552e-01, 5.87290488e-02, 4.27782461e-02,
          5.04977107e-02, 2.90074825e-01, 1.51608184e-01, 1.28622413e-01,
          1.25404462e-01, 1.48349956e-01, 2.90074825e-01, 7.10921064e-02,
          5.48429005e-02, 6.53410703e-02, 1.28770053e-01, 2.58423656e-01,
          1.77117988e-01, 1.62812546e-01, 1.60339534e-01, 2.29666799e-01,
          1.10201761e-01, 9.07698125e-02, 1.05543464e-01, 2.23549277e-01,
          2.81544864e-01, 1.25388324e-01, 9.33319777e-02, 8.89569446e-02,
          1.30067185e-01, 6.12154007e-02, 5.84847108e-02, 8.87826085e-02,
          2.81544864e-01, 2.81544864e-01, 1.08510934e-01, 7.14261308e-02,
          6.04026765e-02, 8.76334906e-02, 4.61065099e-02, 5.33394367e-02,
          8.86027217e-02, 2.81544864e-01, 2.81544864e-01, 1.74151659e-01,
          1.16476104e-01, 1.32647410e-01, 2.17115864e-01, 1.02648884e-01,
          9.53127965e-02, 1.24877401e-01, 2.81544864e-01, 2.81544864e-01,
          1.72145590e-01, 1.06910445e-01, 1.15561329e-01, 1.67529657e-01,
          8.26502368e-02, 8.82211328e-02, 1.29469112e-01, 2.81544864e-01,
          2.54584581e-01, 9.66709927e-02, 1.10713586e-01, 5.11101410e-02,
          1.37845501e-01, 2.99535245e-02, 3.98216657e-02, 4.73192185e-02,
          2.54584581e-01, 1.70627177e-01, 4.62314896e-02, 7.99635649e-02,
          4.88773584e-02, 2.54584581e-01, 2.79988125e-02, 2.62423530e-02,
          1.60150696e-02, 1.85022086e-01, 2.54584581e-01, 2.10185945e-01,
          1.80804729e-01, 1.41439363e-01, 2.54584581e-01, 1.03399687e-01,
          1.22250095e-01, 1.70711637e-01, 2.54584581e-01, 2.54584581e-01,
          1.74542889e-01, 1.65742964e-01, 1.42681584e-01, 2.54584581e-01,
          1.17295399e-01, 1.28396004e-01, 1.73236564e-01, 2.54584581e-01,
          1.65046826e-01, 4.13661413e-02, 9.90509018e-02, 1.88860267e-01,
          4.94718313e-01, 1.30550966e-01, 6.47187307e-02, 3.32081355e-02,
          1.84228748e-01, 2.39082729e-03, 4.59974923e-04, 1.85248838e-03,
          1.40301185e-02, 1.33922279e-01, 1.06713558e-02, 2.79000564e-03,
          1.01457466e-03, 2.90449313e-03, 2.41061956e-01, 1.23751976e-01,
          1.71386838e-01, 2.67958403e-01, 4.94718313e-01, 2.15923250e-01,
          1.44154191e-01, 1.36001736e-01, 2.52457619e-01, 1.43814599e-03,
          8.74203863e-04, 2.98792939e-03, 1.60017479e-02, 1.78463027e-01,
          1.50523083e-02, 2.63200467e-03, 7.49445288e-04, 1.40330289e-03,
          5.63618742e-05, 7.29198609e-06, 2.24625819e-05, 8.55896815e-06,
          3.08430434e-04, 4.93710240e-06, 1.42197923e-05, 3.89547267e-06,
          5.56342966e-05, 1.27827853e-01, 5.23180142e-02, 6.10127412e-02,
          1.97012275e-01, 6.23844266e-01, 1.94449022e-01, 6.38991743e-02,
          5.32831810e-02, 1.36383221e-01, 1.08481334e-04, 1.44717114e-05,
          3.85274034e-05, 1.99593815e-05, 3.83226579e-04, 1.06438783e-05,
          1.75969508e-05, 7.17778903e-06, 1.07773703e-04, 1.20584890e-01,
          5.97789213e-02, 6.18754141e-02, 1.51715025e-01, 6.23844266e-01,
          1.60776213e-01, 5.97238652e-02, 5.48961312e-02, 1.14331119e-01,
          0., 0., 0., 0., 0., 0., 0., 0., 0., 0., 0., 0., 0., 0., 0., 0.,
          0., 0., 0., 0., 0., 0., 0., 0., 0., 0., 0., 0., 0., 0., 0., 0.,
          0., 0., 0., 0., 2.59411149e-03, 1.29289937e-03, 3.06862989e-03,
          9.37753357e-03, 2.92272866e-01, 9.33004357e-03, 2.81816907e-03,
          1.38378236e-03, 2.58691842e-03, 7.41271973e-02, 6.30483478e-02,
          8.52712765e-02, 2.00649306e-01, 6.01662815e-01, 9.42158103e-02,
          3.70216519e-02, 3.71726900e-02, 6.40085861e-02, 2.83131399e-03,
          1.72941072e-03, 3.91806569e-03, 9.50855948e-03, 2.37048730e-01,
          9.58414283e-03, 2.89261807e-03, 1.15281786e-03, 2.72062002e-03,
          5.38304485e-02, 4.53503281e-02, 7.75629580e-02, 1.78560898e-01,
          6.01662815e-01, 9.20715481e-02, 3.32336091e-02, 2.33633239e-02,
          4.72910255e-02, 2.03305721e-01, 1.47018895e-01, 1.38240755e-01,
          1.71723589e-01, 2.63319761e-01, 1.02338783e-01, 7.87389055e-02,
          9.55867767e-02, 1.79512918e-01, 2.63319761e-01, 1.73922092e-01,
          1.59126982e-01, 1.50843933e-01, 2.27333605e-01, 1.20265931e-01,
          1.10590823e-01, 1.29994899e-01, 2.63319761e-01, 1.24268211e-01,
          8.75721648e-02, 1.07603423e-01, 1.32906213e-01, 2.63319761e-01,
          8.03457275e-02, 5.19001000e-02, 5.30900061e-02, 1.13926068e-01,
          2.63319761e-01, 1.55776739e-01, 1.55455902e-01, 1.35717213e-01,
          2.24267438e-01, 1.22983672e-01, 1.08725764e-01, 1.29499570e-01,
          2.63319761e-01, 2.54942030e-01, 1.28543600e-01, 1.00668415e-01,
          1.09754898e-01, 1.63758278e-01, 8.42741877e-02, 8.20418373e-02,
          1.01824969e-01, 2.54942030e-01, 2.54942030e-01, 1.50420502e-01,
          1.12140246e-01, 1.16355166e-01, 1.59480602e-01, 8.54895413e-02,
          8.83122906e-02, 1.20404534e-01, 2.54942030e-01, 2.54942030e-01,
          1.54668182e-01, 1.25647739e-01, 1.08765438e-01, 1.52582139e-01,
          1.03918150e-01, 1.01739891e-01, 1.39617145e-01, 2.54942030e-01,
          2.54942030e-01, 1.98516667e-01, 1.44891039e-01, 1.27877206e-01,
          1.73002377e-01, 1.11111946e-01, 1.23751439e-01, 1.84876025e-01,
          2.54942030e-01, 2.35659525e-01, 1.73451617e-01, 1.37495682e-01,
          1.13328435e-01, 1.79798335e-01, 9.33656543e-02, 1.10370122e-01,
          1.57250389e-01, 2.35659525e-01, 2.35659525e-01, 1.61796495e-01,
          1.26429901e-01, 1.11098118e-01, 2.35659525e-01, 9.96830165e-02,
          1.11144915e-01, 1.56753793e-01, 2.35659525e-01, 2.35659525e-01,
          1.99960172e-01, 1.61485776e-01, 1.22665383e-01, 1.99719891e-01,
          1.05481289e-01, 1.36796504e-01, 1.89094946e-01, 2.35659525e-01,
          2.02311486e-01, 1.07027508e-01, 1.00879550e-01, 6.65525720e-02,
          2.34697998e-01, 6.39712960e-02, 7.33816922e-02, 9.44040939e-02,
          2.01707289e-01, 3.03876787e-01, 1.62707821e-01, 1.69872165e-01,
          2.38452002e-01, 4.51509446e-01, 2.02058479e-01, 1.52623385e-01,
          1.62883922e-01, 3.03940862e-01, 1.61450857e-03, 9.08426184e-04,
          2.30998313e-03, 1.26253609e-02, 1.58715680e-01, 1.20278057e-02,
          1.77874370e-03, 5.31360856e-04, 1.47740624e-03, 1.89423323e-01,
          1.05760172e-01, 1.48246557e-01, 1.42043531e-01, 4.51509446e-01,
          1.35912031e-01, 7.81645030e-02, 7.40491524e-02, 1.81098551e-01,
          2.62447633e-03, 1.18039420e-03, 3.03528411e-03, 1.15403058e-02,
          1.49345592e-01, 1.22430380e-02, 1.78280286e-03, 5.21093723e-04,
          2.48205266e-03, 1.33259367e-04, 1.60651507e-05, 4.24477912e-05,
          3.54185358e-05, 4.38126852e-04, 2.31481499e-05, 2.84969374e-05,
          1.98749713e-05, 1.38238582e-04, 1.67671025e-01, 9.15606618e-02,
          8.30416232e-02, 1.54228047e-01, 5.43876410e-01, 1.81983039e-01,
          7.71131739e-02, 8.78169015e-02, 1.46756366e-01, 8.72842284e-05,
          1.03292050e-05, 3.26283698e-05, 3.84114101e-05, 2.90902855e-04,
          4.43914942e-05, 3.15154648e-05, 2.01243638e-05, 9.17478319e-05,
          3.06876719e-01, 1.45531833e-01, 9.55883041e-02, 1.75249323e-01,
          5.43876410e-01, 2.05849841e-01, 8.03524405e-02, 9.47053283e-02,
          2.33389050e-01, 0., 0., 0., 0., 0., 0., 0., 0., 0., 0., 0., 0.,
          0., 0., 0., 0., 0., 0., 0., 0., 0., 0., 0., 0., 0., 0., 0., 0.,
          0., 0., 0., 0., 0., 0., 0., 0., 3.60486680e-03, 1.75211579e-03,
          4.50876774e-03, 1.12746097e-02, 2.92444021e-01, 1.10203307e-02,
          3.30457278e-03, 1.15845702e-03, 3.53070651e-03, 5.68090752e-02,
          4.91540805e-02, 1.04451105e-01, 2.10299432e-01, 5.77715158e-01,
          1.10325091e-01, 4.11440767e-02, 2.11271420e-02, 5.17645329e-02,
          5.58600761e-03, 9.78927244e-04, 2.37061689e-03, 8.03658459e-03,
          1.93585336e-01, 8.73885304e-03, 2.18976475e-03, 1.61638903e-03,
          4.00075037e-03, 2.20132738e-01, 6.58457726e-02, 9.38021764e-02,
          1.43306553e-01, 5.77715158e-01, 9.74169001e-02, 4.48122174e-02,
          4.27413210e-02, 1.73166394e-01, 1.17843889e-01, 9.58812460e-02,
          1.62179351e-01, 1.45851701e-01, 2.80069143e-01, 7.21692145e-02,
          4.72650528e-02, 3.40917632e-02, 1.07549682e-01, 2.80069143e-01,
          1.91068888e-01, 2.32778907e-01, 1.39213935e-01, 2.80069143e-01,
          1.21331953e-01, 1.13880254e-01, 1.29855454e-01, 2.80069143e-01,
          2.80069143e-01, 9.49024111e-02, 1.25083789e-01, 7.35389516e-02,
          2.80069143e-01, 3.53073627e-02, 3.71585451e-02, 3.58309150e-02,
          2.41866246e-01, 2.80069143e-01, 9.48611796e-02, 1.26990795e-01,
          2.66111232e-02, 1.30749553e-01, 1.38305360e-02, 3.73765677e-02,
          3.28368507e-02, 2.54186064e-01, 2.48019293e-01, 1.74883246e-01,
          1.48475051e-01, 1.24912508e-01, 1.79223180e-01, 1.12464510e-01,
          1.15532629e-01, 1.48261830e-01, 2.48019293e-01, 2.48019293e-01,
          2.33874604e-01, 1.76187664e-01, 1.60443842e-01, 2.25706533e-01,
          1.30394667e-01, 1.53095871e-01, 2.04327986e-01, 2.48019293e-01,
          2.26122692e-01, 9.33957472e-02, 8.78469720e-02, 6.44081011e-02,
          1.07469998e-01, 5.64295538e-02, 7.14862347e-02, 7.69168362e-02,
          2.09416345e-01, 2.48019293e-01, 1.35320500e-01, 1.19580820e-01,
          9.96614546e-02, 1.56864509e-01, 7.80964196e-02, 9.74981710e-02,
          1.06781736e-01, 2.48019293e-01, 2.51369089e-01, 2.49767303e-01,
          2.39268377e-01, 1.60912767e-01, 2.51369089e-01, 1.26314282e-01,
          1.77190408e-01, 2.15211719e-01, 2.51369089e-01, 1.57572135e-01,
          8.32351148e-02, 1.35820895e-01, 5.57608493e-02, 2.51369089e-01,
          4.78729941e-02, 6.30872771e-02, 6.02924637e-02, 1.70718133e-01,
          2.51369089e-01, 1.04691491e-01, 1.36387736e-01, 6.43286631e-02,
          2.08198607e-01, 4.16162908e-02, 6.96898624e-02, 6.06031381e-02,
          2.51369089e-01, 2.51369089e-01, 4.16448973e-02, 8.52231234e-02,
          2.90731136e-02, 2.51369089e-01, 2.46707220e-02, 3.12743932e-02,
          1.49380825e-02, 2.47945562e-01, 1.61337078e-01, 8.09185430e-02,
          1.91930443e-01, 1.52324483e-01, 4.68193382e-01, 1.45083100e-01,
          6.21956177e-02, 3.28061469e-02, 1.62492841e-01, 4.34129778e-03,
          1.90887798e-03, 5.44486986e-03, 1.73849426e-02, 1.99962601e-01,
          1.84329841e-02, 3.32782976e-03, 9.05758759e-04, 4.14185412e-03,
          3.70442688e-01, 8.67167041e-02, 1.48945481e-01, 1.71756878e-01,
          4.68193382e-01, 1.59007683e-01, 6.91512227e-02, 3.40551883e-02,
          3.43930691e-01, 8.22684262e-03, 4.10209410e-03, 5.17317094e-03,
          1.87148433e-02, 1.56166926e-01, 1.81392990e-02, 3.05984938e-03,
          1.75997766e-03, 7.26691540e-03, 8.43129383e-05, 1.01445030e-05,
          3.93879527e-05, 4.84041593e-05, 3.03477369e-04, 7.17920193e-05,
          3.91315007e-05, 1.43565903e-05, 8.51029472e-05, 4.18085635e-01,
          2.99586684e-01, 1.72942385e-01, 3.59740525e-01, 4.18085635e-01,
          3.95917624e-01, 1.36287734e-01, 1.47686586e-01, 4.18085635e-01,
          0., 0., 0., 0., 1.16121521e-06, 0., 0., 0., 0., 6.75452650e-02,
          2.62892097e-02, 1.20698186e-02, 3.15733962e-02, 1.22743912e-01,
          3.38707641e-02, 1.29113887e-02, 1.01004438e-02, 4.84540239e-02,
          0., 0., 0., 0., 0., 0., 0., 0., 0., 0., 0., 0., 0., 0., 0., 0.,
          0., 0., 0., 0., 0., 0., 0., 0., 0., 0., 0., 0., 0., 0., 0., 0.,
          0., 0., 0., 0., 1.90081727e-02, 2.57605012e-03, 5.25211683e-03,
          1.48950517e-02, 2.71929979e-01, 1.76896062e-02, 5.22225164e-03,
          5.52211748e-03, 1.23542324e-02, 4.93481606e-01, 1.60735026e-01,
          1.66954353e-01, 2.35674948e-01, 4.93481606e-01, 1.98786810e-01,
          1.04428828e-01, 1.26731887e-01, 4.93481606e-01, 2.11813487e-03,
          1.84059172e-04, 3.03724490e-04, 2.57712789e-04, 3.12605873e-03,
          5.76102175e-04, 5.36443258e-04, 5.62931353e-04, 1.40783424e-03,
          8.87086019e-02, 6.70873933e-03, 5.24545787e-03, 2.99854553e-03,
          2.07439829e-02, 5.71302045e-03, 6.65017962e-03, 7.66210677e-03,
          7.17197284e-02, 3.94706756e-01, 1.89495891e-01, 1.71929613e-01,
          1.01485930e-01, 3.94706756e-01, 6.68213814e-02, 7.74918795e-02,
          9.52977315e-02, 3.94706756e-01, 3.94706756e-01, 1.66750163e-01,
          1.53496489e-01, 2.36111507e-02, 1.51976302e-01, 1.48332976e-02,
          6.22591563e-02, 6.44619614e-02, 3.94706756e-01, 1.05243094e-01,
          6.49205176e-03, 3.97801539e-03, 9.73683142e-04, 6.83144573e-03,
          1.69371394e-03, 4.34885174e-03, 4.95784963e-03, 9.01829675e-02,
          1.02655366e-01, 5.39371371e-03, 2.49950262e-03, 9.83338759e-05,
          2.71164696e-03, 2.87885941e-05, 2.36779288e-03, 3.07821576e-03,
          9.24153924e-02, 3.66445959e-01, 2.03496516e-01, 1.62992075e-01,
          8.51429999e-02, 1.88037843e-01, 8.75083879e-02, 1.34694174e-01,
          1.42885357e-01, 3.66445959e-01, 3.66445959e-01, 2.77073413e-01,
          2.16322556e-01, 1.30740419e-01, 2.54852295e-01, 1.12899177e-01,
          1.64272457e-01, 1.88046381e-01, 3.66445959e-01, 6.07860088e-02,
          4.54736874e-03, 1.87655620e-03, 1.99173694e-04, 1.22416206e-03,
          2.75759030e-05, 1.66960363e-03, 1.90440170e-03, 5.81407510e-02,
          8.38539898e-02, 5.48060704e-03, 2.76262593e-03, 1.14051720e-04,
          1.62099057e-03, 1.53616784e-05, 2.22056103e-03, 3.41639086e-03,
          8.66622105e-02, 4.00161356e-01, 1.35270491e-01, 1.61056951e-01,
          5.23444749e-02, 2.29181036e-01, 3.42440493e-02, 7.55745173e-02,
          6.90527782e-02, 4.00161356e-01, 4.00161356e-01, 6.76557198e-02,
          1.07970715e-01, 4.15687226e-02, 4.00161356e-01, 4.52844203e-02,
          5.42378351e-02, 2.81439424e-02, 4.00161356e-01, 1.28829479e-01,
          3.40482756e-03, 3.17145535e-03, 7.04312843e-05, 2.26750248e-03,
          2.12673203e-05, 1.41598156e-03, 3.19176889e-03, 1.32405281e-01,
          1.16603293e-01, 3.46517004e-03, 2.88855145e-03, 4.65361285e-04,
          6.43658079e-03, 1.07478071e-03, 2.06489512e-03, 1.73240108e-03,
          1.12345673e-01, 4.89744633e-01, 1.61682293e-01, 1.90306380e-01,
          2.20382512e-01, 4.89744633e-01, 2.48707607e-01, 1.17232181e-01,
          7.28650764e-02, 4.89744633e-01, 2.29927413e-02, 1.03688110e-02,
          8.65434110e-03, 2.23660525e-02, 1.86223611e-01, 2.58411393e-02,
          4.05811425e-03, 4.25513135e-03, 2.05026418e-02, 1.55285731e-01,
          1.33323753e-02, 9.08110105e-03, 2.65132799e-03, 2.88478248e-02,
          5.82196005e-03, 6.34667603e-03, 6.00841641e-03, 1.46109879e-01,
          3.83895938e-03, 1.15904107e-03, 8.86036200e-04, 2.71456549e-04,
          3.19391722e-03, 5.67159790e-04, 3.59732949e-04, 4.65967838e-04,
          3.50694917e-03, 0., 0., 0., 0., 0., 0., 0., 0., 0., 0., 0., 0.,
          0., 0., 0., 0., 0., 0., 0., 0., 0., 0., 0., 0., 0., 0., 0., 0.,
          0., 0., 0., 0., 0., 0., 0., 0., 0., 0., 0., 0., 0., 0., 0., 0.,
          0., 0., 0., 0., 0., 0., 0., 0., 0., 0., 0., 0., 0., 0., 0., 0.,
          0., 0., 0., 0., 0., 0., 0., 0., 0., 0., 0., 0., 0., 0., 0., 0.,
          0., 0., 0., 0., 0., 0., 0., 0., 0., 0., 0., 0., 0., 0., 0., 0.,
          0., 0., 0., 0., 0., 0., 0., 0., 0., 0., 0., 0., 0., 0., 0., 0.,
          0., 0., 0., 0., 0., 0., 0., 0., 0., 0., 0., 0., 0., 0., 0., 0.,
          0., 0., 0., 0., 0., 0., 0., 0., 0., 0., 0., 0., 0., 0., 0., 0.,
          0., 0., 0., 0., 0., 0., 0., 0., 0., 0., 0., 0., 0., 0., 0., 0.,
          0., 0., 0., 0., 0., 0., 0., 0., 0., 0., 0., 0., 0., 0., 0., 0.,
          0., 0., 0., 0., 0., 0., 0., 0., 0., 0., 0., 0., 0., 0., 0., 0.,
          0., 0., 0., 0., 0., 0., 0., 0., 0., 0., 0., 0., 0., 0., 0., 0.,
          0., 0., 0., 0., 0., 0., 0., 0., 0., 0., 0., 0., 0., 0., 0., 0.,
          0., 0., 0., 0., 0., 0., 0., 0., 0., 0., 0., 0., 0., 0., 0., 0.,
          0., 0., 0., 0., 0., 0., 0., 0., 0., 0., 0., 0., 0., 0., 0., 0.,
          0., 0., 0., 0., 0., 0., 0., 0., 0., 0., 0., 0., 0., 0., 0., 0.,
          0., 0., 0., 0., 0., 0., 0., 0., 0., 0., 0., 0., 0., 0., 0., 0.,
          0., 0., 0., 0. ]
      - [ 3.82698351e-03, 2.79014377e-04, 8.34916369e-04, 0.,
          5.57016768e-03, 0., 4.31442400e-04, 1.44180580e-04,
          3.82698351e-03, 2.13736892e-02, 1.11192302e-03, 3.32729728e-03,
          0., 3.14275287e-02, 0., 1.55265443e-03, 5.50629629e-04,
          2.13804618e-02, 3.43793660e-01, 1.77714974e-01, 1.32344067e-01,
          6.31980747e-02, 1.71571821e-01, 4.65531759e-02, 7.88340345e-02,
          1.23715401e-01, 3.43793660e-01, 3.43793660e-01, 3.08740348e-01,
          2.26303712e-01, 1.47715107e-01, 3.09827685e-01, 1.42136484e-01,
          1.76084146e-01, 3.16290438e-01, 3.43793660e-01, 2.01933738e-02,
          3.23977880e-03, 5.13674365e-03, 3.11560999e-03, 1.95243061e-02,
          2.11826968e-03, 3.41240759e-03, 2.33435212e-03, 1.95623264e-02,
          9.59767178e-02, 4.42890972e-02, 4.41641323e-02, 3.05342358e-02,
          6.13648146e-02, 1.81889832e-02, 2.19400749e-02, 2.39447430e-02,
          8.09815750e-02, 2.37461150e-01, 1.06255502e-01, 8.51028338e-02,
          7.90695176e-02, 1.27633676e-01, 7.88521096e-02, 7.84578770e-02,
          1.00198440e-01, 2.41161466e-01, 3.06566983e-01, 3.06566983e-01,
          3.03242147e-01, 2.81885684e-01, 3.06566983e-01, 2.58015215e-01,
          2.89816141e-01, 3.06566983e-01, 3.06566983e-01, 1.14134267e-01,
          4.88939732e-02, 4.27709669e-02, 2.04695519e-02, 5.17021790e-02,
          1.12827448e-02, 2.07291692e-02, 2.40051430e-02, 9.78856981e-02,
          1.31594330e-01, 7.51263499e-02, 6.14760369e-02, 3.76565196e-02,
          6.95842132e-02, 1.94020029e-02, 2.62815747e-02, 2.88831741e-02,
          1.05365619e-01, 3.06187838e-01, 3.05591911e-01, 2.09187329e-01,
          1.56539753e-01, 1.77324891e-01, 1.51998416e-01, 1.99533805e-01,
          3.06187838e-01, 3.06187838e-01, 3.06187838e-01, 2.38025293e-01,
          1.48700088e-01, 1.10362545e-01, 1.36488423e-01, 1.28533334e-01,
          1.40048817e-01, 2.22272903e-01, 3.06187838e-01, 1.35330275e-01,
          1.06151558e-01, 1.10442340e-01, 1.24725401e-01, 1.60053998e-01,
          8.74108523e-02, 7.78754950e-02, 6.66600913e-02, 1.04791127e-01,
          1.12495609e-01, 6.49175644e-02, 7.81486705e-02, 1.06427796e-01,
          1.66028097e-01, 1.21363826e-01, 1.18740201e-01, 1.06655762e-01,
          1.29423767e-01, 2.37823278e-01, 2.37823278e-01, 2.02658892e-01,
          2.01041430e-01, 2.15131044e-01, 1.67020842e-01, 1.51680559e-01,
          1.63471133e-01, 2.37823278e-01, 2.37823278e-01, 1.69984862e-01,
          1.52843878e-01, 1.82289019e-01, 2.24558577e-01, 2.02269867e-01,
          2.12452918e-01, 2.37823278e-01, 2.37823278e-01, 1.06268801e-01,
          2.76245959e-02, 2.62046810e-02, 2.25167926e-02, 7.32343942e-02,
          4.22095060e-02, 6.25713691e-02, 6.96490332e-02, 1.30171180e-01,
          1.07517630e-01, 2.66644266e-02, 2.35411376e-02, 1.06894625e-02,
          5.23941666e-02, 2.18741652e-02, 4.49092984e-02, 4.82796505e-02,
          1.22193836e-01, 3.07373613e-01, 2.08025709e-01, 1.35007173e-01,
          1.22018263e-01, 1.37473419e-01, 1.17887244e-01, 1.52776718e-01,
          2.25613609e-01, 3.07373613e-01, 3.07373613e-01, 3.07373613e-01,
          2.08383977e-01, 1.50013044e-01, 1.59527972e-01, 1.60091445e-01,
          2.20546782e-01, 3.06451440e-01, 3.07373613e-01, 9.11161080e-02,
          2.92863958e-02, 2.69210543e-02, 1.68334991e-02, 6.35082573e-02,
          3.01485769e-02, 4.86000739e-02, 4.82282601e-02, 9.97196138e-02,
          1.68592911e-02, 2.63325917e-03, 2.99049634e-03, 3.00874002e-03,
          1.60016157e-02, 3.22644762e-03, 5.02113206e-03, 4.34449362e-03,
          1.75305791e-02, 3.12535316e-01, 3.12535316e-01, 2.93902755e-01,
          2.49261752e-01, 2.82702088e-01, 2.62453109e-01, 3.12535316e-01,
          3.12535316e-01, 3.12535316e-01, 2.42189571e-01, 1.08960614e-01,
          8.50428492e-02, 8.20249990e-02, 1.08724646e-01, 7.64276385e-02,
          9.63952243e-02, 1.18763730e-01, 2.34427571e-01, 2.62390841e-02,
          9.54964780e-05, 2.74793420e-04, 0., 3.81201804e-02, 0.,
          2.13355711e-03, 7.29404914e-04, 2.62416303e-02, 5.12016984e-03,
          1.08063054e-04, 3.23364686e-04, 0., 1.01911724e-02, 0.,
          8.11123929e-04, 2.71063822e-04, 5.12016984e-03, 3.26333463e-01,
          3.26333463e-01, 2.03760073e-01, 1.37395814e-01, 2.69569546e-01,
          1.59383789e-01, 2.03704223e-01, 3.21451813e-01, 3.26333463e-01,
          3.26333463e-01, 1.45399645e-01, 9.26028267e-02, 7.28624314e-02,
          2.01137230e-01, 1.07042938e-01, 1.41774341e-01, 2.25712448e-01,
          3.26333463e-01, 1.57037631e-01, 6.83519617e-02, 5.12076207e-02,
          4.41464745e-02, 5.18420786e-02, 3.43538597e-02, 4.37097326e-02,
          6.23306148e-02, 1.49553463e-01, 2.36090019e-01, 8.79812688e-02,
          6.26983494e-02, 6.14507310e-02, 7.26294294e-02, 5.30464649e-02,
          6.24630935e-02, 9.81932282e-02, 2.45114520e-01, 2.63675719e-01,
          2.03018397e-01, 1.53759673e-01, 1.61665171e-01, 1.86082229e-01,
          1.33298650e-01, 1.56088457e-01, 2.02984482e-01, 2.63675719e-01,
          2.63675719e-01, 2.40244567e-01, 1.90937549e-01, 1.91505328e-01,
          1.91192672e-01, 1.56724274e-01, 1.79126874e-01, 2.59660780e-01,
          2.63675719e-01, 1.86074764e-01, 8.54704008e-02, 6.81318492e-02,
          7.15986863e-02, 9.73778591e-02, 7.05102161e-02, 6.84528798e-02,
          8.80715102e-02, 1.83297664e-01, 2.41510615e-01, 1.88490197e-01,
          1.39547676e-01, 1.26496255e-01, 1.46861926e-01, 1.19434588e-01,
          1.36725694e-01, 1.79396719e-01, 2.41510615e-01, 2.41510615e-01,
          2.06669331e-01, 1.84143841e-01, 1.71005413e-01, 2.25207150e-01,
          1.54224619e-01, 1.55415550e-01, 2.10176393e-01, 2.41510615e-01,
          2.41510615e-01, 1.56726867e-01, 1.32209867e-01, 1.12357080e-01,
          1.61260128e-01, 1.04769409e-01, 1.22823454e-01, 1.49288312e-01,
          2.41510615e-01, 2.70847529e-01, 2.32565150e-01, 1.52487069e-01,
          1.13571271e-01, 1.24844961e-01, 1.09579004e-01, 1.54459998e-01,
          2.59385556e-01, 2.70847529e-01, 2.70847529e-01, 1.61186233e-01,
          9.37661529e-02, 6.88220114e-02, 9.20975506e-02, 8.10647160e-02,
          1.01716690e-01, 1.74890384e-01, 2.70847529e-01, 2.70847529e-01,
          1.47737041e-01, 9.70498174e-02, 6.69436455e-02, 8.37941393e-02,
          5.83404452e-02, 9.14074704e-02, 1.45438030e-01, 2.70847529e-01,
          2.70847529e-01, 9.76683348e-02, 5.42334765e-02, 3.56089473e-02,
          5.58683351e-02, 3.47122177e-02, 5.46964891e-02, 9.61008742e-02,
          2.70847529e-01, 2.79240370e-01, 2.02533081e-01, 1.49233580e-01,
          1.40397146e-01, 1.56969026e-01, 1.26661897e-01, 1.18925817e-01,
          1.46306962e-01, 2.79240370e-01, 2.79240370e-01, 1.55439407e-01,
          1.25519127e-01, 1.30910665e-01, 1.56320959e-01, 1.40703395e-01,
          1.44723341e-01, 1.92001835e-01, 2.79240370e-01, 2.79240370e-01,
          8.94459561e-02, 6.22562282e-02, 5.43737151e-02, 6.07300773e-02,
          4.69826236e-02, 5.19490130e-02, 6.97844550e-02, 2.79240370e-01,
          2.79240370e-01, 7.12611675e-02, 5.33934161e-02, 4.72247750e-02,
          5.34783751e-02, 5.10339625e-02, 5.74851595e-02, 8.86136293e-02,
          2.79240370e-01, 2.72276849e-01, 1.64549470e-01, 1.03805125e-01,
          7.65251368e-02, 8.39321017e-02, 6.70271069e-02, 9.91983339e-02,
          1.57140166e-01, 2.72276849e-01, 2.72276849e-01, 2.61328489e-01,
          1.62642986e-01, 1.09430745e-01, 1.15352616e-01, 1.07801065e-01,
          1.62434831e-01, 2.33399525e-01, 2.72276849e-01, 2.72276849e-01,
          9.01807994e-02, 5.84373139e-02, 3.16064507e-02, 4.60465848e-02,
          2.98742820e-02, 5.96456416e-02, 9.45588052e-02, 2.72276849e-01,
          2.72276849e-01, 1.46105975e-01, 9.72990543e-02, 5.57656661e-02,
          7.94510394e-02, 5.64658232e-02, 9.88048315e-02, 1.43769220e-01,
          2.72276849e-01, 2.49657273e-01, 1.97830275e-01, 1.42091557e-01,
          1.18169628e-01, 1.33320108e-01, 1.20738894e-01, 1.59997270e-01,
          2.16884509e-01, 2.49657273e-01, 2.00621441e-01, 9.34921950e-02,
          7.35825822e-02, 6.75437897e-02, 8.48249123e-02, 6.74266517e-02,
          7.69817382e-02, 1.00654833e-01, 2.02074423e-01, 2.49657273e-01,
          1.41598195e-01, 1.08793706e-01, 8.48392546e-02, 1.21379606e-01,
          9.09284428e-02, 1.24827772e-01, 1.62891224e-01, 2.49657273e-01,
          2.49657273e-01, 1.85206369e-01, 1.49788067e-01, 1.33776814e-01,
          1.81895331e-01, 1.55249938e-01, 1.88339517e-01, 2.14842051e-01,
          2.49657273e-01, 2.25981697e-01, 9.69518870e-02, 6.24868348e-02,
          4.92364392e-02, 6.42529726e-02, 5.82782812e-02, 6.41592667e-02,
          9.03072283e-02, 2.19626978e-01, 1.56373784e-01, 6.69093654e-02,
          4.64947559e-02, 3.99133489e-02, 5.87299727e-02, 4.79516797e-02,
          5.94013743e-02, 8.18826556e-02, 1.62313059e-01, 2.65679151e-01,
          2.40611508e-01, 1.69907138e-01, 1.44084185e-01, 1.74391121e-01,
          1.77210078e-01, 2.00658455e-01, 2.48552591e-01, 2.65679151e-01,
          2.65679151e-01, 2.06049845e-01, 1.59820035e-01, 1.47020251e-01,
          1.89912140e-01, 1.62447885e-01, 1.75055653e-01, 2.25981727e-01,
          2.65679151e-01, 2.46613055e-01, 1.95347026e-01, 1.45070285e-01,
          1.45773932e-01, 1.79052725e-01, 1.26508579e-01, 1.33793920e-01,
          1.73712388e-01, 2.46613055e-01, 2.46613055e-01, 2.02712849e-01,
          1.61730319e-01, 1.47471815e-01, 1.53589338e-01, 1.18504003e-01,
          1.32989317e-01, 1.88095927e-01, 2.46613055e-01, 2.46613055e-01,
          1.81754947e-01, 1.43748045e-01, 1.13485910e-01, 1.75046563e-01,
          1.22325853e-01, 1.18051909e-01, 1.38435468e-01, 2.46613055e-01,
          2.17106044e-01, 1.10970244e-01, 8.03684816e-02, 6.24957494e-02,
          9.13590789e-02, 5.80036528e-02, 6.25623390e-02, 8.21995288e-02,
          1.97117165e-01, 2.95302123e-01, 2.95302123e-01, 2.95302123e-01,
          2.95302123e-01, 2.95302123e-01, 2.48705208e-01, 2.65242010e-01,
          2.95302123e-01, 2.95302123e-01, 2.27395818e-01, 1.13091342e-01,
          1.05669804e-01, 8.23213682e-02, 1.64477825e-01, 8.13928172e-02,
          9.65062529e-02, 1.11541413e-01, 2.19109207e-01, 1.61060378e-01,
          7.48398900e-02, 6.52512237e-02, 4.57799658e-02, 7.59498551e-02,
          3.49057019e-02, 4.48518060e-02, 5.67931198e-02, 1.34776548e-01,
          7.76744168e-03, 3.49188899e-03, 3.70201236e-03, 2.43620668e-03,
          8.90767854e-03, 2.51792371e-03, 3.64746084e-03, 3.00251273e-03,
          7.16382358e-03, 3.26261014e-01, 3.26261014e-01, 2.51736432e-01,
          1.30045518e-01, 2.64415830e-01, 1.21594757e-01, 2.32318595e-01,
          3.26261014e-01, 3.26261014e-01, 3.26261014e-01, 2.13940039e-01,
          1.28124103e-01, 5.87550886e-02, 1.54917568e-01, 4.97380160e-02,
          1.14625394e-01, 1.83999628e-01, 3.26261014e-01, 0., 0., 0., 0.,
          0., 0., 0., 0., 0., 0., 0., 0., 0., 0., 0., 0., 0., 0.,
          4.73076820e-01, 1.04555696e-01, 9.38520208e-02, 5.17278351e-02,
          1.85069948e-01, 3.32967415e-02, 7.68882185e-02, 8.44358131e-02,
          4.73076820e-01, 4.73076820e-01, 5.04249446e-02, 5.93870394e-02,
          9.60197207e-03, 6.76085278e-02, 1.41304163e-02, 9.78740305e-02,
          9.34864953e-02, 4.73076820e-01, 0., 0., 0., 0., 0., 0., 0., 0.,
          0., 0., 0., 0., 0., 0., 0., 0., 0., 0., 3.28761190e-01,
          1.74295440e-01, 1.35938466e-01, 4.78983037e-02, 1.28176987e-01,
          4.53882962e-02, 1.52962103e-01, 2.01134190e-01, 3.28761190e-01,
          3.28761190e-01, 3.28761190e-01, 2.62527585e-01, 1.10183813e-01,
          2.54122883e-01, 1.16796777e-01, 2.35448629e-01, 3.28761190e-01,
          3.28761190e-01, 0., 0., 0., 0., 0., 0., 0., 0., 0., 0., 0., 0.,
          0., 0., 0., 0., 0., 0., 2.17752472e-01, 9.77218822e-02,
          7.85664767e-02, 5.63913919e-02, 1.06497608e-01, 6.21376708e-02,
          8.75029340e-02, 1.04322679e-01, 2.20013753e-01, 3.06715190e-01,
          3.06715190e-01, 2.74608165e-01, 2.29615644e-01, 3.06715190e-01,
          2.95813650e-01, 3.06715190e-01, 3.06715190e-01, 3.06715190e-01,
          3.37418518e-03, 1.35842548e-03, 1.15503604e-03, 6.54931297e-04,
          3.81208910e-03, 7.41123979e-04, 1.64760719e-03, 1.17544562e-03,
          3.28272907e-03, 1.42856255e-01, 5.70786297e-02, 4.59224097e-02,
          2.95631066e-02, 8.15461800e-02, 4.17562127e-02, 6.98898658e-02,
          7.07067251e-02, 1.53013289e-01, 2.51688421e-01, 1.70941442e-01,
          1.26042768e-01, 1.07715771e-01, 1.47501916e-01, 1.37270555e-01,
          1.68519646e-01, 1.99030057e-01, 2.51688421e-01, 2.51688421e-01,
          1.73705697e-01, 1.40169814e-01, 1.35250553e-01, 1.76350921e-01,
          1.50535092e-01, 1.61786973e-01, 2.02163801e-01, 2.51688421e-01,
          1.84841827e-01, 7.35563561e-02, 5.87685890e-02, 4.82897945e-02,
          8.46254230e-02, 5.93010411e-02, 8.42217058e-02, 9.85859931e-02,
          2.02721894e-01, 2.51688421e-01, 1.41791716e-01, 1.28657818e-01,
          1.13288477e-01, 1.64050013e-01, 1.25593781e-01, 1.52615100e-01,
          1.83688462e-01, 2.51688421e-01, 2.45349035e-01, 2.39224389e-01,
          2.22964168e-01, 1.68793172e-01, 2.45349035e-01, 1.98606104e-01,
          1.99523777e-01, 1.98900595e-01, 2.45349035e-01, 1.47899061e-01,
          8.10467675e-02, 6.25906363e-02, 4.44996245e-02, 9.77798775e-02,
          4.82169539e-02, 5.71679845e-02, 6.25370890e-02, 1.41113654e-01,
          2.45349035e-01, 2.04790533e-01, 1.67162150e-01, 1.77581683e-01,
          2.45349035e-01, 1.85750321e-01, 2.28287727e-01, 2.45349035e-01,
          2.45349035e-01, 1.20889880e-01, 5.90574034e-02, 4.79301699e-02,
          4.45650183e-02, 1.01370394e-01, 5.16161062e-02, 7.06935748e-02,
          7.30906576e-02, 1.22093745e-01, 3.17669004e-01, 2.04228103e-01,
          1.61764085e-01, 1.38458923e-01, 3.17669004e-01, 1.47110447e-01,
          1.96781024e-01, 1.98890284e-01, 3.17669004e-01, 0., 0., 0., 0.,
          0., 0., 0., 0., 0., 3.17669004e-01, 1.85004473e-01,
          1.83505118e-01, 1.35206327e-01, 3.17669004e-01, 1.87860385e-01,
          2.25298271e-01, 1.79283634e-01, 3.17669004e-01, 0., 0., 0., 0.,
          3.59555270e-05, 0., 0., 0., 0., 0., 0., 0., 0., 0., 0., 0., 0.,
          0., 0., 0., 0., 0., 0., 0., 0., 0., 0., 0., 0., 0., 0., 0., 0.,
          0., 0., 0., 0., 0., 0., 0., 0., 0., 0., 0., 0., 0., 0., 0., 0.,
          0., 0., 0., 0., 0., 0., 0., 0., 0., 0., 0., 0., 0., 0., 0., 0.,
          0., 0., 0., 0., 0., 0., 0., 0., 0., 0., 0., 0., 0., 0., 0., 0.,
          0., 0., 0., 0., 0., 0., 0., 0., 0., 0., 0., 0., 0., 0., 0., 0.,
          0., 0., 0., 0., 0., 0., 0., 0., 0., 0., 0., 0., 0., 0., 0., 0.,
          0., 0., 0., 0., 5.66710136e-04, 0., 0., 0., 2.13242858e-03, 0.,
          0., 0., 5.66710136e-04, 3.36790055e-01, 1.03344865e-01,
          1.09259948e-01, 8.64289925e-02, 3.36790055e-01, 1.12111598e-01,
          2.34192118e-01, 2.06099436e-01, 3.36790055e-01, 0., 0., 0., 0.,
          0., 0., 0., 0., 0., 3.36790055e-01, 2.15626568e-01,
          2.39186600e-01, 1.45753756e-01, 3.36790055e-01, 9.23811272e-02,
          1.52232066e-01, 1.39378905e-01, 3.36790055e-01, 1.18820056e-01,
          5.27833179e-02, 4.95695174e-02, 3.57759818e-02, 7.94545114e-02,
          4.04433906e-02, 6.34912997e-02, 7.16709122e-02, 1.31339982e-01,
          2.53607094e-01, 2.05951422e-01, 2.16320753e-01, 1.70789599e-01,
          2.53607094e-01, 1.80341765e-01, 2.18565553e-01, 2.47883841e-01,
          2.53607094e-01, 1.31888986e-01, 7.02563673e-02, 5.98144233e-02,
          4.85035218e-02, 9.30622742e-02, 3.39134820e-02, 4.35251817e-02,
          4.78520319e-02, 1.12447321e-01, 2.53607094e-01, 2.47285753e-01,
          2.13209108e-01, 2.02794820e-01, 2.53607094e-01, 1.65704325e-01,
          1.76150680e-01, 1.87926620e-01, 2.53607094e-01, 2.48127028e-01,
          1.36209518e-01, 1.05707556e-01, 1.14453025e-01, 1.64572954e-01,
          1.32198468e-01, 1.54641807e-01, 1.80881917e-01, 2.48127028e-01,
          1.76017791e-01, 7.24098757e-02, 5.45596853e-02, 5.24397083e-02,
          1.00198679e-01, 6.92538545e-02, 8.81833136e-02, 1.01212196e-01,
          1.94208890e-01, 2.48127028e-01, 1.79544777e-01, 1.36840060e-01,
          1.42549649e-01, 1.71799541e-01, 1.58354357e-01, 1.61886483e-01,
          1.94259912e-01, 2.48127028e-01, 2.48127028e-01, 1.67324886e-01,
          1.23844802e-01, 1.25033751e-01, 1.67038053e-01, 1.43101320e-01,
          1.73303857e-01, 2.10649937e-01, 2.48127028e-01, 1.30771294e-01,
          5.10490946e-02, 3.54107581e-02, 3.09761018e-02, 8.02560821e-02,
          4.34063599e-02, 6.99375495e-02, 7.72163719e-02, 1.51678547e-01,
          1.24052009e-02, 4.45350027e-03, 3.33666336e-03, 2.05081841e-03,
          8.19111243e-03, 2.89124460e-03, 5.22709033e-03, 5.94189903e-03,
          1.27116032e-02, 3.03721815e-01, 3.03721815e-01, 2.45530635e-01,
          2.28083774e-01, 3.03721815e-01, 2.71789879e-01, 3.03721815e-01,
          3.03721815e-01, 3.03721815e-01, 2.34493300e-01, 1.22821614e-01,
          8.74338001e-02, 7.07675144e-02, 1.49792299e-01, 7.55976290e-02,
          1.08534120e-01, 1.19728163e-01, 2.36049905e-01, 0., 0., 0., 0.,
          0., 0., 0., 0., 0., 0., 0., 0., 0., 0., 0., 0., 0., 0.,
          3.38353306e-01, 3.38353306e-01, 2.15851277e-01, 1.36649355e-01,
          3.38353306e-01, 1.41668931e-01, 2.59739488e-01, 3.36314172e-01,
          3.38353306e-01, 3.38353306e-01, 8.34272355e-02, 5.22485301e-02,
          2.60496121e-02, 1.18169606e-01, 2.52397042e-02, 9.00438577e-02,
          1.03621230e-01, 3.38353306e-01, 0., 0., 0., 0., 0., 0., 0., 0.,
          0., 0., 0., 0., 0., 0., 0., 0., 0., 0., 4.97722477e-01,
          9.73754004e-03, 1.35146081e-02, 5.28963609e-03, 3.81896943e-02,
          1.35271496e-03, 3.37654911e-02, 1.62737370e-02, 4.97722477e-01,
          4.97722477e-01, 8.58261436e-03, 1.67752504e-02, 3.57668754e-03,
          1.99690629e-02, 0., 1.09777506e-02, 7.77071808e-03,
          4.97722477e-01, 0., 0., 0., 0., 0., 0., 0., 0., 0., 0., 0., 0.,
          0., 0., 0., 0., 0., 0., 3.41806322e-01, 1.18414588e-01,
          8.65301490e-02, 3.14112529e-02, 8.89196470e-02, 2.27718689e-02,
          6.53422475e-02, 7.85182342e-02, 3.41806322e-01, 3.41806322e-01,
          3.41806322e-01, 2.73934603e-01, 1.34535909e-01, 2.93186247e-01,
          1.21962696e-01, 2.45491609e-01, 3.41806322e-01, 3.41806322e-01,
          2.59422464e-03, 1.44953816e-03, 1.48576428e-03, 1.03374256e-03,
          2.85562198e-03, 7.18920142e-04, 1.37257320e-03, 1.17118505e-03,
          2.87264376e-03, 1.32871315e-01, 7.91096464e-02, 7.16844127e-02,
          4.94956337e-02, 8.47333297e-02, 3.60579193e-02, 3.88238430e-02,
          4.41614799e-02, 1.23152800e-01, 2.20084935e-01, 1.20463118e-01,
          8.90852064e-02, 5.84429763e-02, 1.03391737e-01, 5.08535095e-02,
          7.71676153e-02, 1.01171643e-01, 2.18317211e-01, 3.05530965e-01,
          3.05530965e-01, 3.05530965e-01, 3.05530965e-01, 3.05530965e-01,
          2.38383919e-01, 2.76782900e-01, 3.05530965e-01, 3.05530965e-01,
          1.93336695e-01, 9.84290242e-02, 8.00241753e-02, 6.96039200e-02,
          9.52870101e-02, 4.75580096e-02, 5.27867936e-02, 6.54351786e-02,
          1.70516253e-01, 2.52919048e-01, 1.84097812e-01, 1.46635190e-01,
          1.43764108e-01, 1.69961438e-01, 1.10866502e-01, 1.13491960e-01,
          1.35733932e-01, 2.52919048e-01, 2.52919048e-01, 1.93014801e-01,
          1.59822628e-01, 1.41773388e-01, 1.61008835e-01, 1.17981121e-01,
          1.21138141e-01, 1.46815434e-01, 2.52919048e-01, 2.52919048e-01,
          2.02356100e-01, 1.64172739e-01, 1.64633557e-01, 1.74625605e-01,
          1.41903892e-01, 1.49436057e-01, 1.79947942e-01, 2.52919048e-01,
          2.62424618e-01, 2.06643268e-01, 1.46032348e-01, 1.52570769e-01,
          1.77585989e-01, 1.62376866e-01, 1.58483505e-01, 1.97114974e-01,
          2.62424618e-01, 2.62424618e-01, 2.40735948e-01, 1.70050815e-01,
          1.71283394e-01, 1.97934762e-01, 1.75745130e-01, 1.94757044e-01,
          2.48321280e-01, 2.62424618e-01, 1.55085772e-01, 7.07260296e-02,
          4.51287292e-02, 4.49903458e-02, 5.89274019e-02, 4.93643694e-02,
          5.31873554e-02, 7.29695335e-02, 1.51469901e-01, 2.43868321e-01,
          1.12838969e-01, 7.05413595e-02, 6.75524697e-02, 8.09738189e-02,
          6.28503487e-02, 6.81874231e-02, 9.61630046e-02, 2.24936187e-01,
          2.45488837e-01, 2.01476693e-01, 1.47579968e-01, 1.42733410e-01,
          2.10333735e-01, 1.49007246e-01, 1.91786453e-01, 2.24863991e-01,
          2.45488837e-01, 2.45488837e-01, 1.55920327e-01, 1.09308153e-01,
          9.34919864e-02, 1.43474743e-01, 9.62851867e-02, 1.33162588e-01,
          1.58019081e-01, 2.45488837e-01, 1.86879158e-01, 9.70701426e-02,
          7.03621954e-02, 6.92828447e-02, 8.57382193e-02, 6.18991069e-02,
          7.67087862e-02, 9.54083651e-02, 1.95315525e-01, 2.45488837e-01,
          1.91523850e-01, 1.27370507e-01, 1.06528558e-01, 1.30834475e-01,
          1.18058927e-01, 1.61381960e-01, 2.05175817e-01, 2.45488837e-01,
          2.78156400e-01, 1.34662658e-01, 7.75644109e-02, 5.23410887e-02,
          8.64104703e-02, 5.79669140e-02, 9.03071091e-02, 1.24059513e-01,
          2.78156400e-01, 2.78156400e-01, 7.47155696e-02, 3.72721702e-02,
          2.46551186e-02, 4.20636162e-02, 2.63312645e-02, 4.70743477e-02,
          7.64610246e-02, 2.78156400e-01, 2.78156400e-01, 2.58692473e-01,
          1.45216942e-01, 1.06925994e-01, 1.33848846e-01, 1.19286396e-01,
          1.57353476e-01, 2.33931959e-01, 2.78156400e-01, 2.78156400e-01,
          1.70357943e-01, 9.36311781e-02, 7.12291002e-02, 8.78253207e-02,
          7.06229210e-02, 9.04828012e-02, 1.55122146e-01, 2.78156400e-01,
          2.73877174e-01, 7.65872374e-02, 5.12321182e-02, 4.56009433e-02,
          4.83734049e-02, 4.88053411e-02, 5.65246679e-02, 8.75937268e-02,
          2.73877174e-01, 2.73877174e-01, 9.26781893e-02, 5.86484373e-02,
          5.26867919e-02, 4.89069149e-02, 4.31170501e-02, 4.70056161e-02,
          7.15209693e-02, 2.73877174e-01, 2.73877174e-01, 1.65230885e-01,
          1.27329513e-01, 1.25782207e-01, 1.54761150e-01, 1.45057231e-01,
          1.47366151e-01, 2.07551613e-01, 2.73877174e-01, 2.73877174e-01,
          2.06596076e-01, 1.57322556e-01, 1.50980160e-01, 1.59618750e-01,
          1.27567515e-01, 1.22623496e-01, 1.68865740e-01, 2.73877174e-01,
          2.79941738e-01, 7.92071968e-02, 3.83150168e-02, 2.49814391e-02,
          3.30643095e-02, 2.19480284e-02, 3.71751748e-02, 6.96499944e-02,
          2.67589301e-01, 2.79941738e-01, 1.49636552e-01, 7.87077323e-02,
          5.53554520e-02, 7.13819712e-02, 4.89406772e-02, 7.86352679e-02,
          1.29654795e-01, 2.79941738e-01, 2.79941738e-01, 1.53994009e-01,
          8.39338452e-02, 7.20533729e-02, 8.08766857e-02, 6.66597858e-02,
          9.27812681e-02, 1.62980795e-01, 2.79941738e-01, 2.79941738e-01,
          2.52610892e-01, 1.46565467e-01, 1.21586204e-01, 1.26780480e-01,
          1.08842745e-01, 1.48062155e-01, 2.58248955e-01, 2.79941738e-01,
          2.50376046e-01, 1.75660521e-01, 1.11322060e-01, 8.22185874e-02,
          1.11568980e-01, 7.63610825e-02, 9.64406729e-02, 1.39128551e-01,
          2.50376046e-01, 2.50376046e-01, 2.09717050e-01, 1.73023134e-01,
